{"learner":{"attributes":{"scikit_learn":"{\"_estimator_type\": \"classifier\"}"},"feature_names":[],"feature_types":[],"gradient_booster":{"model":{"cats":{"enc":[],"feature_segments":[],"sorted_idx":[]},"gbtree_model_param":{"num_parallel_tree":"1","num_trees":"150"},"iteration_indptr":[0,1,2,3,4,5,6,7,8,9,10,11,12,13,14,15,16,17,18,19,20,21,22,23,24,25,26,27,28,29,30,31,32,33,34,35,36,37,38,39,40,41,42,43,44,45,46,47,48,49,50,51,52,53,54,55,56,57,58,59,60,61,62,63,64,65,66,67,68,69,70,71,72,73,74,75,76,77,78,79,80,81,82,83,84,85,86,87,88,89,90,91,92,93,94,95,96,97,98,99,100,101,102,103,104,105,106,107,108,109,110,111,112,113,114,115,116,117,118,119,120,121,122,123,124,125,126,127,128,129,130,131,132,133,134,135,136,137,138,139,140,141,142,143,144,145,146,147,148,149,150],"tree_info":[0,0,0,0,0,0,0,0,0,0,0,0,0,0,0,0,0,0,0,0,0,0,0,0,0,0,0,0,0,0,0,0,0,0,0,0,0,0,0,0,0,0,0,0,0,0,0,0,0,0,0,0,0,0,0,0,0,0,0,0,0,0,0,0,0,0,0,0,0,0,0,0,0,0,0,0,0,0,0,0,0,0,0,0,0,0,0,0,0,0,0,0,0,0,0,0,0,0,0,0,0,0,0,0,0,0,0,0,0,0,0,0,0,0,0,0,0,0,0,0,0,0,0,0,0,0,0,0,0,0,0,0,0,0,0,0,0,0,0,0,0,0,0,0,0,0,0,0,0,0],"trees":[{"base_weights":[-1.3052365E-3,1.7658567E0,-8.4416395E-1,7.609852E-1,1.9143462E0,-1.3321435E0,1.2235069E0,1.5731598E0,-1.6497463E0,-6.1440676E-1,1.9319346E0,-1.6406424E0,1.4499148E0,1.943514E0,1.8058248E-1,-2.3551415E-1,1.810315E0,6.939969E-1,-1.9067502E0,-1.5555195E0,1.3443357E0,1.9510008E0,8.394017E-1,1.437488E0,-1.7520072E0,2.3291148E-1,1.8850034E0,1.9740641E0,-4.614231E-1,1.7079592E0,-1.4013823E0,4.1544214E-2,-8.472113E-2,-1.3814824E-2,9.5702246E-2,7.419657E-2,-2.2722514E-2,-9.809741E-2,2.0005459E-2,-9.099099E-2,4.3531475E-3,-1.6666668E-2,7.894989E-2,9.827589E-2,3.5554294E-2,-3.9042536E-2,6.5815955E-2,9.353472E-2,-5.613597E-2,-9.0080045E-2,5.180278E-2,-7.8496516E-2,6.589925E-2,9.861716E-2,4.248066E-2,-4.9998E-2,9.9319726E-2,-7.777778E-2,2.2228366E-2,9.547102E-2,-8.823471E-2,-2.8135655E-2,-8.860537E-2],"categories":[],"categories_nodes":[],"categories_segments":[],"categories_sizes":[],"default_left":[0,0,0,0,0,0,0,0,0,0,0,0,0,0,0,0,0,0,0,0,0,0,0,0,0,0,0,0,0,0,0,0,0,0,0,0,0,0,0,0,0,0,0,0,0,0,0,0,0,0,0,0,0,0,0,0,0,0,0,0,0,0,0],"id":0,"left_children":[1,3,5,7,9,11,13,15,17,19,21,23,25,27,29,31,33,35,37,39,41,43,45,47,49,51,53,55,57,59,61,-1,-1,-1,-1,-1,-1,-1,-1,-1,-1,-1,-1,-1,-1,-1,-1,-1,-1,-1,-1,-1,-1,-1,-1,-1,-1,-1,-1,-1,-1,-1,-1],"loss_changes":[3.344932E4,1.0765E3,1.5345808E4,1.8413474E3,2.8461133E2,1.0564824E4,2.1778867E3,3.0390112E2,1.4661816E2,8.688922E1,1.2461133E2,3.802461E3,6.4771216E2,1.2950195E2,2.8776406E3,1.3242767E2,1.3734155E2,2.460661E1,3.0445007E1,1.5725037E1,8.3027E0,1.054668E2,8.914518E1,4.3477667E2,1.482793E3,6.426413E2,7.560962E1,6.717041E1,2.5046616E1,4.308999E2,1.7748254E2,0E0,0E0,0E0,0E0,0E0,0E0,0E0,0E0,0E0,0E0,0E0,0E0,0E0,0E0,0E0,0E0,0E0,0E0,0E0,0E0,0E0,0E0,0E0,0E0,0E0,0E0,0E0,0E0,0E0,0E0,0E0,0E0],"parents":[2147483647,0,0,1,1,2,2,3,3,4,4,5,5,6,6,7,7,8,8,9,9,10,10,11,11,12,12,13,13,14,14,15,15,16,16,17,17,18,18,19,19,20,20,21,21,22,22,23,23,24,24,25,25,26,26,27,27,28,28,29,29,30,30],"right_children":[2,4,6,8,10,12,14,16,18,20,22,24,26,28,30,32,34,36,38,40,42,44,46,48,50,52,54,56,58,60,62,-1,-1,-1,-1,-1,-1,-1,-1,-1,-1,-1,-1,-1,-1,-1,-1,-1,-1,-1,-1,-1,-1,-1,-1,-1,-1,-1,-1,-1,-1,-1,-1],"split_conditions":[-9.4391525E-1,-7.80749E-1,-6.0888413E-2,-9.7512853E-1,-9.453971E-1,5.9473467E-1,-4.086362E-1,1.1124991E0,2.6060635E-1,6.2249E-1,-1.079685E0,-1.1876706E0,2.1545328E-1,-4.97601E-1,-1.1986665E0,-1.4551E0,-2.2559028E0,-9.3615925E-1,-1.5016872E-1,4.816908E-1,-7.289822E-1,1.0814973E0,-6.8187885E-2,-1.6042827E0,5.167779E-1,1.2684952E-1,-2.890627E-1,1.2272154E-1,-1.13142475E-1,1.0148352E0,3.0084547E-2,4.1544214E-2,-8.472113E-2,-1.3814824E-2,9.5702246E-2,7.419657E-2,-2.2722514E-2,-9.809741E-2,2.0005459E-2,-9.099099E-2,4.3531475E-3,-1.6666668E-2,7.894989E-2,9.827589E-2,3.5554294E-2,-3.9042536E-2,6.5815955E-2,9.353472E-2,-5.613597E-2,-9.0080045E-2,5.180278E-2,-7.8496516E-2,6.589925E-2,9.861716E-2,4.248066E-2,-4.9998E-2,9.9319726E-2,-7.777778E-2,2.2228366E-2,9.547102E-2,-8.823471E-2,-2.8135655E-2,-8.860537E-2],"split_indices":[119,158,122,127,179,82,146,89,35,91,118,93,108,171,105,118,113,131,188,20,135,34,85,105,17,179,187,111,34,22,179,0,0,0,0,0,0,0,0,0,0,0,0,0,0,0,0,0,0,0,0,0,0,0,0,0,0,0,0,0,0,0,0],"split_type":[0,0,0,0,0,0,0,0,0,0,0,0,0,0,0,0,0,0,0,0,0,0,0,0,0,0,0,0,0,0,0,0,0,0,0,0,0,0,0,0,0,0,0,0,0,0,0,0,0,0,0,0,0,0,0,0,0,0,0,0,0,0,0],"sum_hessian":[2.2453846E4,7.2499707E3,1.5203874E4,9.358419E2,6.3141284E3,1.2301792E4,2.9020825E3,7.008392E2,2.3500278E2,4.2752026E1,6.2713765E3,1.1074892E4,1.2269005E3,1.7152406E3,1.186842E3,8.075501E1,6.200841E2,2.250224E1,2.1250053E2,2.950032E1,1.3251706E1,6.161365E3,1.100112E2,3.8554724E2,1.0689344E4,3.2452582E2,9.0237476E2,1.6944895E3,2.0751066E1,6.040798E2,5.8276227E2,4.67548E1,3.4000214E1,2.8751705E1,5.913324E2,1.3501813E1,9.000426E0,2.082501E2,4.2504263E0,2.575E1,3.75032E0,1E0,1.2251706E1,6.0881084E3,7.325714E1,2.425096E1,8.576024E1,3.3054562E2,5.50016E1,1.0503574E4,1.8577016E2,1.2125171E2,2.032741E2,8.296173E2,7.275746E1,6.000107E0,1.6884894E3,9.25E0,1.1501066E1,5.7207965E2,3.2000107E1,1.8100917E2,4.0175308E2],"tree_param":{"num_deleted":"0","num_feature":"200","num_nodes":"63","size_leaf_vector":"1"}},{"base_weights":[4.137483E-3,1.6819909E0,-7.973996E-1,7.030087E-1,1.8128113E0,-1.2784619E0,1.1524276E0,1.5580066E0,-1.5421065E0,1.834939E0,1.9475754E-1,-1.6049908E0,1.1589876E0,1.8503896E0,2.689777E-1,-6.0333973E-1,1.773016E0,5.164563E-1,-1.8059704E0,-8.3515275E-1,1.8470943E0,1.7425785E0,-1.596401E0,1.2168703E0,-1.6755446E0,1.8156657E0,5.8406133E-2,1.8818113E0,-5.671407E-1,1.6304013E0,-1.3236758E0,3.0125832E-2,-7.3281646E-2,-5.525432E-3,9.272144E-2,-4.246023E-2,5.82379E-2,-9.232672E-2,4.065348E-2,-7.5760536E-2,4.7872234E-2,9.366308E-2,6.0875643E-2,-0E0,8.991495E-2,4.850438E-2,-9.338155E-2,8.822139E-2,-6.418138E-2,-8.6174734E-2,5.0353106E-2,-4.369906E-2,9.389751E-2,-4.4128507E-2,9.001636E-2,-1.817924E-2,9.4719075E-2,-6.953197E-2,2.5851136E-2,8.910788E-2,-7.219645E-2,-2.9605588E-2,-8.580367E-2],"categories":[],"categories_nodes":[],"categories_segments":[],"categories_sizes":[],"default_left":[0,0,0,0,0,0,0,0,0,0,0,0,0,0,0,0,0,0,0,0,0,0,0,0,0,0,0,0,0,0,0,0,0,0,0,0,0,0,0,0,0,0,0,0,0,0,0,0,0,0,0,0,0,0,0,0,0,0,0,0,0,0,0],"id":1,"left_children":[1,3,5,7,9,11,13,15,17,19,21,23,25,27,29,31,33,35,37,39,41,43,45,47,49,51,53,55,57,59,61,-1,-1,-1,-1,-1,-1,-1,-1,-1,-1,-1,-1,-1,-1,-1,-1,-1,-1,-1,-1,-1,-1,-1,-1,-1,-1,-1,-1,-1,-1,-1,-1],"loss_changes":[3.0282531E4,9.272344E2,1.4295209E4,1.6599902E3,2.2709375E2,9.732447E3,1.8565796E3,2.9411047E2,1.326983E2,2.0959961E2,2.537009E2,2.1508047E3,1.0421073E3,1.313628E2,2.8972878E3,6.2615635E1,8.9571655E1,2.7279446E1,2.6587402E1,3.9664093E1,9.620508E1,4.86528E0,3.3903748E1,3.661582E2,1.3571914E3,1.5576904E2,8.9338855E2,4.9850586E1,2.2608616E1,3.4162866E2,1.72375E2,0E0,0E0,0E0,0E0,0E0,0E0,0E0,0E0,0E0,0E0,0E0,0E0,0E0,0E0,0E0,0E0,0E0,0E0,0E0,0E0,0E0,0E0,0E0,0E0,0E0,0E0,0E0,0E0,0E0,0E0,0E0,0E0],"parents":[2147483647,0,0,1,1,2,2,3,3,4,4,5,5,6,6,7,7,8,8,9,9,10,10,11,11,12,12,13,13,14,14,15,15,16,16,17,17,18,18,19,19,20,20,21,21,22,22,23,23,24,24,25,25,26,26,27,27,28,28,29,29,30,30],"right_children":[2,4,6,8,10,12,14,16,18,20,22,24,26,28,30,32,34,36,38,40,42,44,46,48,50,52,54,56,58,60,62,-1,-1,-1,-1,-1,-1,-1,-1,-1,-1,-1,-1,-1,-1,-1,-1,-1,-1,-1,-1,-1,-1,-1,-1,-1,-1,-1,-1,-1,-1,-1,-1],"split_conditions":[-9.4391525E-1,-8.2499E-1,-6.434435E-2,-1.0178217E0,1.0814973E0,3.202037E-1,-3.8946068E-1,8.788185E-1,2.6060635E-1,-9.088728E-1,6.0586527E-2,-1.1876706E0,-4.8551783E-1,-4.479353E-1,-1.1986665E0,-1.7677965E0,-2.2824278E0,7.013828E-1,-1.3239814E-1,7.351186E-1,-1.0564786E0,-9.533895E-1,-2.2611778E0,-1.6042827E0,5.0675565E-1,1.7020777E0,7.806093E-1,2.7856702E-1,-7.511183E-2,1.0146507E0,1.178831E-1,3.0125832E-2,-7.3281646E-2,-5.525432E-3,9.272144E-2,-4.246023E-2,5.82379E-2,-9.232672E-2,4.065348E-2,-7.5760536E-2,4.7872234E-2,9.366308E-2,6.0875643E-2,-0E0,8.991495E-2,4.850438E-2,-9.338155E-2,8.822139E-2,-6.418138E-2,-8.6174734E-2,5.0353106E-2,-4.369906E-2,9.389751E-2,-4.4128507E-2,9.001636E-2,-1.817924E-2,9.4719075E-2,-6.953197E-2,2.5851136E-2,8.910788E-2,-7.219645E-2,-2.9605588E-2,-8.580367E-2],"split_indices":[119,165,123,127,34,81,144,88,35,194,107,93,186,176,105,124,113,87,189,92,119,147,123,105,18,93,182,110,19,23,186,0,0,0,0,0,0,0,0,0,0,0,0,0,0,0,0,0,0,0,0,0,0,0,0,0,0,0,0,0,0,0,0],"split_type":[0,0,0,0,0,0,0,0,0,0,0,0,0,0,0,0,0,0,0,0,0,0,0,0,0,0,0,0,0,0,0,0,0,0,0,0,0,0,0,0,0,0,0,0,0,0,0,0,0,0,0,0,0,0,0,0,0,0,0,0,0,0,0],"sum_hessian":[2.2512557E4,7.27755E3,1.5235007E4,8.6026074E2,6.417289E3,1.2221029E4,3.0139768E3,6.237703E2,2.364904E2,6.329839E3,8.745017E1,1.0778234E4,1.4427952E3,1.6818916E3,1.3320852E3,5.56902E1,5.6808014E2,2.6220898E1,2.102695E2,2.7698751E1,6.30214E3,4.7240265E1,4.0209908E1,2.6177188E2,1.0516463E4,9.022477E2,5.405474E2,1.6611577E3,2.0733934E1,7.184899E2,6.135953E2,2.2987135E1,3.2703064E1,2.299862E1,5.4508154E2,7.744556E0,1.8476341E1,2.0801941E2,2.250095E0,2.070951E1,6.9892406E0,6.0453384E3,2.568017E2,1.4996816E0,4.5740585E1,2.9983292E0,3.721158E1,2.155578E2,4.621407E1,1.0332856E4,1.8360603E2,1.9467257E1,8.8278046E2,3.5122836E2,1.8931906E2,8.493887E0,1.6526638E3,1.1986412E1,8.747523E0,6.85803E2,3.2686977E1,2.1686E2,3.9673526E2],"tree_param":{"num_deleted":"0","num_feature":"200","num_nodes":"63","size_leaf_vector":"1"}},{"base_weights":[-3.3104427E-3,1.6017948E0,-7.6721734E-1,7.154378E-1,1.7452093E0,-1.2162344E0,1.1265612E0,1.4371201E0,-1.5553021E0,-7.842981E-1,1.75838E0,-1.5211499E0,1.1303569E0,1.7701447E0,2.663662E-1,-8.183513E-1,1.6080265E0,-1.6979231E0,1.1105161E0,-1.4514508E0,9.526453E-1,1.7799193E0,6.3272965E-1,1.2155297E0,-1.5972816E0,1.7518612E0,1.0677308E-1,1.7960479E0,-9.274915E-1,1.5771129E0,-1.3177673E0,-6.208059E-2,6.4983435E-2,-5.540306E-3,8.439876E-2,2.1345902E-2,-8.835845E-2,-1.2479067E-3,7.0298344E-2,-8.264916E-2,4.216647E-3,6.585216E-2,-1.1801451E-4,8.948537E-2,1.4533947E-2,-4.2859618E-2,5.9206646E-2,8.172563E-2,-5.1321823E-2,-8.216997E-2,4.9301196E-2,-3.934319E-2,9.002735E-2,-4.0008362E-2,8.700353E-2,-1.5297419E-2,9.062437E-2,3.229097E-2,-6.826937E-2,8.649495E-2,-7.238318E-2,-3.446172E-2,-8.497184E-2],"categories":[],"categories_nodes":[],"categories_segments":[],"categories_sizes":[],"default_left":[0,0,0,0,0,0,0,0,0,0,0,0,0,0,0,0,0,0,0,0,0,0,0,0,0,0,0,0,0,0,0,0,0,0,0,0,0,0,0,0,0,0,0,0,0,0,0,0,0,0,0,0,0,0,0,0,0,0,0,0,0,0,0],"id":2,"left_children":[1,3,5,7,9,11,13,15,17,19,21,23,25,27,29,31,33,35,37,39,41,43,45,47,49,51,53,55,57,59,61,-1,-1,-1,-1,-1,-1,-1,-1,-1,-1,-1,-1,-1,-1,-1,-1,-1,-1,-1,-1,-1,-1,-1,-1,-1,-1,-1,-1,-1,-1,-1,-1],"loss_changes":[2.7359666E4,9.096387E2,1.2859259E4,1.6535752E3,2.0997461E2,8.749424E3,1.6015588E3,2.983297E2,9.687567E1,4.1569633E1,1.4467383E2,2.2582734E3,8.924404E2,1.1997998E2,2.5862942E3,5.2297157E1,9.982764E1,3.700348E1,5.8829956E0,9.613407E0,4.7886553E0,8.4953125E1,1.0063342E2,2.7974982E2,1.2580371E3,1.1191162E2,7.948182E2,5.9362793E1,1.3995614E1,3.203302E2,1.3050775E2,0E0,0E0,0E0,0E0,0E0,0E0,0E0,0E0,0E0,0E0,0E0,0E0,0E0,0E0,0E0,0E0,0E0,0E0,0E0,0E0,0E0,0E0,0E0,0E0,0E0,0E0,0E0,0E0,0E0,0E0,0E0,0E0],"parents":[2147483647,0,0,1,1,2,2,3,3,4,4,5,5,6,6,7,7,8,8,9,9,10,10,11,11,12,12,13,13,14,14,15,15,16,16,17,17,18,18,19,19,20,20,21,21,22,22,23,23,24,24,25,25,26,26,27,27,28,28,29,29,30,30],"right_children":[2,4,6,8,10,12,14,16,18,20,22,24,26,28,30,32,34,36,38,40,42,44,46,48,50,52,54,56,58,60,62,-1,-1,-1,-1,-1,-1,-1,-1,-1,-1,-1,-1,-1,-1,-1,-1,-1,-1,-1,-1,-1,-1,-1,-1,-1,-1,-1,-1,-1,-1,-1,-1],"split_conditions":[-9.4391525E-1,-7.649003E-1,-5.250152E-2,-9.7512853E-1,-9.5331514E-1,3.5182405E-1,-3.865346E-1,4.5239365E-1,3.5182405E-1,-4.4821787E-1,-1.079685E0,-1.1876706E0,-5.34576E-1,-8.543379E-2,-1.3672888E0,-8.1672996E-1,-2.3655214E0,-3.3818752E-1,8.862515E-1,2.117577E0,-1.2913924E-1,2.4897556E0,-6.8187885E-2,-1.3672888E0,5.0675565E-1,6.175714E-1,7.806093E-1,1.1632273E-1,-1.3161529E0,1.0146507E0,1.23393215E-1,-6.208059E-2,6.4983435E-2,-5.540306E-3,8.439876E-2,2.1345902E-2,-8.835845E-2,-1.2479067E-3,7.0298344E-2,-8.264916E-2,4.216647E-3,6.585216E-2,-1.1801451E-4,8.948537E-2,1.4533947E-2,-4.2859618E-2,5.9206646E-2,8.172563E-2,-5.1321823E-2,-8.216997E-2,4.9301196E-2,-3.934319E-2,9.002735E-2,-4.0008362E-2,8.700353E-2,-1.5297419E-2,9.062437E-2,3.229097E-2,-6.826937E-2,8.649495E-2,-7.238318E-2,-3.446172E-2,-8.497184E-2],"split_indices":[119,157,123,127,177,81,146,87,81,134,118,93,187,173,104,138,113,1,107,93,136,91,85,104,18,107,182,110,102,23,188,0,0,0,0,0,0,0,0,0,0,0,0,0,0,0,0,0,0,0,0,0,0,0,0,0,0,0,0,0,0,0,0],"split_type":[0,0,0,0,0,0,0,0,0,0,0,0,0,0,0,0,0,0,0,0,0,0,0,0,0,0,0,0,0,0,0,0,0,0,0,0,0,0,0,0,0,0,0,0,0,0,0,0,0,0,0,0,0,0,0,0,0,0,0,0,0,0,0],"sum_hessian":[2.231013E4,7.1929507E3,1.5117181E4,1.0043893E3,6.1885615E3,1.2220847E4,2.8963337E3,7.630521E2,2.4133716E2,3.1055899E1,6.1575054E3,1.0816485E4,1.4043612E3,1.6548926E3,1.2414412E3,5.2801193E1,7.102509E2,2.3012668E2,1.1210476E1,2.309114E1,7.964757E0,6.039882E3,1.1762349E2,2.9159406E2,1.0524892E4,8.7230884E2,5.320524E2,1.6401824E3,1.4710238E1,6.796905E2,5.617506E2,4.5090183E1,7.711009E0,3.0977573E1,6.792734E2,6.4810467E0,2.2364563E2,1.9939053E0,9.216571E0,2.08532E1,2.2379403E0,5.9741483E0,1.9906088E0,5.9993755E3,4.0506657E1,3.0983011E1,8.664048E1,2.4651314E2,4.5080914E1,1.0341389E4,1.8350247E2,1.54565935E1,8.5685223E2,3.423562E2,1.8969623E2,1.1982778E1,1.6281996E3,2.4988515E0,1.2211388E1,6.481388E2,3.1551727E1,2.1534776E2,3.4640286E2],"tree_param":{"num_deleted":"0","num_feature":"200","num_nodes":"63","size_leaf_vector":"1"}},{"base_weights":[-5.749988E-4,1.5423774E0,-7.2597307E-1,7.175102E-1,1.6789438E0,-1.1574658E0,1.0946517E0,1.3805578E0,-1.4892956E0,-1.2091416E0,1.6904716E0,-1.4396886E0,1.1622623E0,1.7165736E0,1.9884467E-1,-7.330524E-1,1.5595238E0,5.298023E-1,-1.6508584E0,3.8099444E-1,-7.966935E-2,-4.976588E-1,1.6995445E0,1.2900689E0,-1.5354607E0,1.8396455E-1,1.6831192E0,-3.5319698E-1,1.7420763E0,1.5110029E0,-1.2290751E0,-6.218947E-2,6.312311E-2,8.5754685E-2,4.290444E-2,-5.6968983E-2,6.288828E-2,-8.561719E-2,4.1334637E-2,-0E0,3.6062237E-2,-7.244559E-2,1.8762158E-2,8.551176E-2,2.1853907E-2,8.341383E-2,-4.6839505E-2,-7.8739785E-2,4.408713E-2,-5.4122098E-2,5.95028E-2,8.69125E-2,4.059294E-3,4.5910805E-2,-5.197811E-2,8.7476574E-2,-4.999717E-2,8.380508E-2,-6.61916E-2,-2.7810115E-2,-8.131709E-2],"categories":[],"categories_nodes":[],"categories_segments":[],"categories_sizes":[],"default_left":[0,0,0,0,0,0,0,0,0,0,0,0,0,0,0,0,0,0,0,0,0,0,0,0,0,0,0,0,0,0,0,0,0,0,0,0,0,0,0,0,0,0,0,0,0,0,0,0,0,0,0,0,0,0,0,0,0,0,0,0,0],"id":3,"left_children":[1,3,5,7,9,11,13,15,17,19,21,23,25,27,29,31,33,35,37,39,-1,41,43,45,47,49,51,53,55,57,59,-1,-1,-1,-1,-1,-1,-1,-1,-1,-1,-1,-1,-1,-1,-1,-1,-1,-1,-1,-1,-1,-1,-1,-1,-1,-1,-1,-1,-1,-1],"loss_changes":[2.4758137E4,7.920332E2,1.1823548E4,1.4808337E3,2.0653906E2,7.96829E3,1.603896E3,2.9721436E2,7.913916E1,1.7664238E1,1.2287109E2,2.8401035E3,6.702709E2,9.24082E1,2.223382E3,6.5922516E1,7.282031E1,2.5315264E1,3.683777E1,1.3333184E0,0E0,2.3788847E1,7.759766E1,3.1413782E2,1.0000156E3,5.908504E2,7.390845E1,2.1132679E1,3.8615234E1,2.9428577E2,1.4783423E2,0E0,0E0,0E0,0E0,0E0,0E0,0E0,0E0,0E0,0E0,0E0,0E0,0E0,0E0,0E0,0E0,0E0,0E0,0E0,0E0,0E0,0E0,0E0,0E0,0E0,0E0,0E0,0E0,0E0,0E0],"parents":[2147483647,0,0,1,1,2,2,3,3,4,4,5,5,6,6,7,7,8,8,9,9,10,10,11,11,12,12,13,13,14,14,15,15,16,16,17,17,18,18,19,19,21,21,22,22,23,23,24,24,25,25,26,26,27,27,28,28,29,29,30,30],"right_children":[2,4,6,8,10,12,14,16,18,20,22,24,26,28,30,32,34,36,38,40,-1,42,44,46,48,50,52,54,56,58,60,-1,-1,-1,-1,-1,-1,-1,-1,-1,-1,-1,-1,-1,-1,-1,-1,-1,-1,-1,-1,-1,-1,-1,-1,-1,-1,-1,-1,-1,-1],"split_conditions":[-9.4391525E-1,-7.508105E-1,-6.0888413E-2,-9.584963E-1,-8.091532E-1,4.165661E-1,-4.086362E-1,4.88112E-1,1.2149769E-2,-1.4862202E-1,-8.892357E-1,-1.1876706E0,1.4224379E0,5.61243E-1,-1.3672888E0,-7.91096E-1,-1.2318757E0,-7.731858E-2,3.2337013E-1,-8.7108403E-1,-7.966935E-2,-2.3841408E-1,-9.68058E-1,-1.6042827E0,5.0875723E-1,2.037795E-1,-3.233468E-1,2.2298892E0,-4.2001674E-1,1.0146507E0,1.178831E-1,-6.218947E-2,6.312311E-2,8.5754685E-2,4.290444E-2,-5.6968983E-2,6.288828E-2,-8.561719E-2,4.1334637E-2,-0E0,3.6062237E-2,-7.244559E-2,1.8762158E-2,8.551176E-2,2.1853907E-2,8.341383E-2,-4.6839505E-2,-7.8739785E-2,4.408713E-2,-5.4122098E-2,5.95028E-2,8.69125E-2,4.059294E-3,4.5910805E-2,-5.197811E-2,8.7476574E-2,-4.999717E-2,8.380508E-2,-6.61916E-2,-2.7810115E-2,-8.131709E-2],"split_indices":[119,155,122,127,161,81,146,87,23,32,197,93,107,108,104,148,125,85,198,130,0,37,117,105,20,181,186,99,171,23,186,0,0,0,0,0,0,0,0,0,0,0,0,0,0,0,0,0,0,0,0,0,0,0,0,0,0,0,0,0,0],"split_type":[0,0,0,0,0,0,0,0,0,0,0,0,0,0,0,0,0,0,0,0,0,0,0,0,0,0,0,0,0,0,0,0,0,0,0,0,0,0,0,0,0,0,0,0,0,0,0,0,0,0,0,0,0,0,0,0,0,0,0,0,0],"sum_hessian":[2.2116928E4,7.0716333E3,1.5045295E4,1.0073038E3,6.0643296E3,1.2163735E4,2.881559E3,7.7550183E2,2.31802E2,2.2938871E1,6.0413906E3,1.0845446E4,1.3182887E3,1.6990381E3,1.182521E3,5.9618675E1,7.158831E2,1.6377642E1,2.1542435E2,3.9610662E0,1.8977806E1,2.4046581E1,6.017344E3,3.6641016E2,1.0479036E4,4.596253E2,8.586634E2,1.9889835E1,1.6791483E3,6.165441E2,5.659769E2,4.846815E1,1.1150524E1,5.823984E2,1.3348477E2,4.2131314E0,1.2164511E1,2.1120422E2,4.220126E0,1.7345512E0,2.226515E0,1.1423531E1,1.2623051E1,5.965328E3,5.201628E1,3.1402686E2,5.2383312E1,1.0312335E4,1.6670119E2,2.0298033E2,2.5664496E2,8.293276E2,2.9335846E1,6.2254186E0,1.3664417E1,1.6756809E3,3.4673378E0,5.83719E2,3.282511E1,2.1282346E2,3.5315347E2],"tree_param":{"num_deleted":"0","num_feature":"200","num_nodes":"61","size_leaf_vector":"1"}},{"base_weights":[2.6896761E-3,1.488034E0,-7.0772946E-1,6.4938754E-1,1.6127808E0,-1.1279843E0,1.0105708E0,1.3436261E0,-1.3966471E0,-1.0825332E0,1.6274835E0,-1.4131778E0,1.0155382E0,1.6433502E0,2.3285855E-1,-2.8256235E-1,1.5465721E0,-1.6206487E0,5.3228545E-1,-1.4913983E0,3.5478544E-1,1.6485429E0,5.0807947E-1,1.1167332E0,-1.4774245E0,1.6050411E0,3.5372183E-2,-1.1396601E0,1.6651735E0,1.4069507E0,-1.2330729E0,2.5637856E-2,-7.213816E-2,-1.4293996E-2,8.077399E-2,3.7648033E-2,-8.3034836E-2,-4.0638003E-2,5.1311653E-2,-7.9012886E-2,-0E0,4.5407765E-2,-2.9841391E-2,8.3065964E-2,3.128494E-2,-3.4565046E-2,6.0847104E-2,7.8543715E-2,-4.7998894E-2,-7.6059595E-2,4.907108E-2,-4.7529824E-2,8.335041E-2,-5.6767672E-2,5.663215E-2,-7.249571E-2,-0E0,-1.876127E-2,8.4018454E-2,7.5539395E-2,-5.5357005E-2,3.1514123E-2,-6.734746E-2],"categories":[],"categories_nodes":[],"categories_segments":[],"categories_sizes":[],"default_left":[0,0,0,0,0,0,0,0,0,0,0,0,0,0,0,0,0,0,0,0,0,0,0,0,0,0,0,0,0,0,0,0,0,0,0,0,0,0,0,0,0,0,0,0,0,0,0,0,0,0,0,0,0,0,0,0,0,0,0,0,0,0,0],"id":4,"left_children":[1,3,5,7,9,11,13,15,17,19,21,23,25,27,29,31,33,35,37,39,41,43,45,47,49,51,53,55,57,59,61,-1,-1,-1,-1,-1,-1,-1,-1,-1,-1,-1,-1,-1,-1,-1,-1,-1,-1,-1,-1,-1,-1,-1,-1,-1,-1,-1,-1,-1,-1,-1,-1],"loss_changes":[2.3137336E4,7.3784375E2,1.071258E4,1.3147823E3,2.4870801E2,7.289171E3,1.431977E3,2.3004102E2,1.0411926E2,2.2366283E1,1.4093848E2,1.7135703E3,8.073368E2,1.01879395E2,2.2598083E3,7.416369E1,7.988318E1,2.3468018E1,1.878032E1,4.4649887E0,5.963901E0,7.438086E1,1.018222E2,2.5005652E2,1.1077598E3,1.4225024E2,6.815663E2,5.013502E0,5.2019043E1,1.9410962E2,1.2626288E2,0E0,0E0,0E0,0E0,0E0,0E0,0E0,0E0,0E0,0E0,0E0,0E0,0E0,0E0,0E0,0E0,0E0,0E0,0E0,0E0,0E0,0E0,0E0,0E0,0E0,0E0,0E0,0E0,0E0,0E0,0E0,0E0],"parents":[2147483647,0,0,1,1,2,2,3,3,4,4,5,5,6,6,7,7,8,8,9,9,10,10,11,11,12,12,13,13,14,14,15,15,16,16,17,17,18,18,19,19,20,20,21,21,22,22,23,23,24,24,25,25,26,26,27,27,28,28,29,29,30,30],"right_children":[2,4,6,8,10,12,14,16,18,20,22,24,26,28,30,32,34,36,38,40,42,44,46,48,50,52,54,56,58,60,62,-1,-1,-1,-1,-1,-1,-1,-1,-1,-1,-1,-1,-1,-1,-1,-1,-1,-1,-1,-1,-1,-1,-1,-1,-1,-1,-1,-1,-1,-1,-1,-1],"split_conditions":[-9.4391525E-1,-7.80749E-1,-6.434435E-2,-9.6722966E-1,-9.5331514E-1,3.202037E-1,-4.086362E-1,8.788185E-1,-1.4753598E0,-4.7066063E-1,-1.079685E0,-1.1876706E0,-3.316114E-1,-3.9086604E-1,-7.374066E-1,-1.4229014E0,-2.170346E0,-7.312478E-1,8.035083E-1,8.99669E-1,-2.1606123E-1,1.0443931E0,2.442329E-1,-1.6042827E0,5.244623E-1,1.5991322E0,2.3665369E-1,6.1481625E-2,2.0881188E-1,1.0146507E0,-2.6679274E-1,2.5637856E-2,-7.213816E-2,-1.4293996E-2,8.077399E-2,3.7648033E-2,-8.3034836E-2,-4.0638003E-2,5.1311653E-2,-7.9012886E-2,-0E0,4.5407765E-2,-2.9841391E-2,8.3065964E-2,3.128494E-2,-3.4565046E-2,6.0847104E-2,7.8543715E-2,-4.7998894E-2,-7.6059595E-2,4.907108E-2,-4.7529824E-2,8.335041E-2,-5.6767672E-2,5.663215E-2,-7.249571E-2,-0E0,-1.876127E-2,8.4018454E-2,7.5539395E-2,-5.5357005E-2,3.1514123E-2,-6.734746E-2],"split_indices":[119,158,123,126,177,81,146,88,112,133,118,93,194,84,92,119,112,65,88,0,133,35,85,105,19,93,180,34,110,23,137,0,0,0,0,0,0,0,0,0,0,0,0,0,0,0,0,0,0,0,0,0,0,0,0,0,0,0,0,0,0,0,0],"split_type":[0,0,0,0,0,0,0,0,0,0,0,0,0,0,0,0,0,0,0,0,0,0,0,0,0,0,0,0,0,0,0,0,0,0,0,0,0,0,0,0,0,0,0,0,0,0,0,0,0,0,0,0,0,0,0,0,0,0,0,0,0,0,0],"sum_hessian":[2.1921875E4,7.0923687E3,1.4829506E4,9.210139E2,6.171355E3,1.1916329E4,2.9131775E3,6.885559E2,2.3245805E2,3.232442E1,6.1390303E3,1.0518059E4,1.3982698E3,1.6043217E3,1.3088558E3,7.576282E1,6.127931E2,2.0902286E2,2.343519E1,2.5648764E1,6.6756554E0,6.0238643E3,1.1516593E2,2.5929196E2,1.0258767E4,8.717041E2,5.265657E2,1.1328943E1,1.5929927E3,7.271946E2,5.8166125E2,4.5100517E1,3.0662304E1,2.1454227E1,5.9133887E2,2.4631157E0,2.0655975E2,5.4041157E0,1.8031075E1,2.4414745E1,1.2340188E0,4.9432836E0,1.7323719E0,5.94735E3,7.6514145E1,4.2275513E1,7.289042E1,2.1355896E2,4.5732998E1,1.0080504E4,1.7826343E2,1.9575048E1,8.521291E2,2.5428125E2,2.722844E2,8.619793E0,2.7091498E0,1.0939091E1,1.5820536E3,6.994997E2,2.7694872E1,3.247199E1,5.491893E2],"tree_param":{"num_deleted":"0","num_feature":"200","num_nodes":"63","size_leaf_vector":"1"}},{"base_weights":[-5.7570324E-3,1.3616816E0,-7.156733E-1,1.463368E0,-4.4003817E-1,-1.1398282E0,9.725882E-1,1.5102168E0,-1.2209911E0,-1.3829297E0,1.4356741E0,-1.3630463E0,1.0400265E0,1.5968142E0,1.3338332E-1,1.5833684E0,9.5294315E-1,-1.6908731E0,1.0610999E0,-1.6348301E0,1.0612097E0,1.5570768E0,-1.3414656E-1,6.774424E-1,-1.4534308E0,1.5888828E0,-1.254713E-1,1.6254214E0,-6.494001E-1,1.3807758E0,-1.106958E0,7.946975E-2,-4.2536773E-2,-2.3482645E-2,7.071503E-2,2.024085E-2,-8.697248E-2,6.39443E-2,-2.5735185E-2,-8.2801834E-2,-0E0,-1.1760707E-2,6.714483E-2,-0E0,7.9116754E-2,3.847648E-2,-6.505703E-2,-4.512595E-2,7.88061E-2,-7.4740365E-2,4.1729685E-2,-4.7158618E-2,8.087904E-2,-4.806888E-2,4.5188893E-2,-3.7791234E-2,8.171579E-2,2.9367963E-2,-5.8911394E-2,7.811162E-2,-5.639425E-2,-2.3237826E-2,-7.6880135E-2],"categories":[],"categories_nodes":[],"categories_segments":[],"categories_sizes":[],"default_left":[0,0,0,0,0,0,0,0,0,0,0,0,0,0,0,0,0,0,0,0,0,0,0,0,0,0,0,0,0,0,0,0,0,0,0,0,0,0,0,0,0,0,0,0,0,0,0,0,0,0,0,0,0,0,0,0,0,0,0,0,0,0,0],"id":5,"left_children":[1,3,5,7,9,11,13,15,17,19,21,23,25,27,29,31,33,35,37,39,41,43,45,47,49,51,53,55,57,59,61,-1,-1,-1,-1,-1,-1,-1,-1,-1,-1,-1,-1,-1,-1,-1,-1,-1,-1,-1,-1,-1,-1,-1,-1,-1,-1,-1,-1,-1,-1,-1,-1],"loss_changes":[2.0882512E4,1.3491025E3,1.0142828E4,8.791709E2,7.0026746E2,5.5107695E3,1.487685E3,2.7333203E2,1.3301764E2,1.6620844E2,2.706192E1,1.8966133E3,6.748938E2,1.0782959E2,1.8846779E3,9.208594E1,5.2761615E2,1.2998383E1,9.416021E0,9.895691E0,1.1033932E1,3.6619263E0,1.3870815E1,6.232454E2,9.3418164E2,5.5754272E1,2.926904E2,3.745996E1,1.602884E1,2.805255E2,1.6538617E2,0E0,0E0,0E0,0E0,0E0,0E0,0E0,0E0,0E0,0E0,0E0,0E0,0E0,0E0,0E0,0E0,0E0,0E0,0E0,0E0,0E0,0E0,0E0,0E0,0E0,0E0,0E0,0E0,0E0,0E0,0E0,0E0],"parents":[2147483647,0,0,1,1,2,2,3,3,4,4,5,5,6,6,7,7,8,8,9,9,10,10,11,11,12,12,13,13,14,14,15,15,16,16,17,17,18,18,19,19,20,20,21,21,22,22,23,23,24,24,25,25,26,26,27,27,28,28,29,29,30,30],"right_children":[2,4,6,8,10,12,14,16,18,20,22,24,26,28,30,32,34,36,38,40,42,44,46,48,50,52,54,56,58,60,62,-1,-1,-1,-1,-1,-1,-1,-1,-1,-1,-1,-1,-1,-1,-1,-1,-1,-1,-1,-1,-1,-1,-1,-1,-1,-1,-1,-1,-1,-1,-1,-1],"split_conditions":[-8.98988E-1,7.150188E-1,-7.250886E-2,1.0814973E0,-5.225696E-1,4.478337E-1,-4.0511703E-1,-1.1820252E0,1.4596139E-1,3.5737547E-1,-1.0751348E0,-6.472688E-1,-5.34576E-1,-4.664782E-1,-1.3672888E0,1.3007723E0,1.0698107E-1,-1.8851384E0,1.4193093E0,1.3253676E0,6.709782E-1,-8.306459E-1,-1.2823089E0,-3.8554385E-1,4.655283E-1,1.5299985E0,-3.2343548E-2,3.3031848E-1,-5.3117967E-1,9.052535E-1,1.23393215E-1,7.946975E-2,-4.2536773E-2,-2.3482645E-2,7.071503E-2,2.024085E-2,-8.697248E-2,6.39443E-2,-2.5735185E-2,-8.2801834E-2,-0E0,-1.1760707E-2,6.714483E-2,-0E0,7.9116754E-2,3.847648E-2,-6.505703E-2,-4.512595E-2,7.88061E-2,-7.4740365E-2,4.1729685E-2,-4.7158618E-2,8.087904E-2,-4.806888E-2,4.5188893E-2,-3.7791234E-2,8.171579E-2,2.9367963E-2,-5.8911394E-2,7.811162E-2,-5.639425E-2,-2.3237826E-2,-7.6880135E-2],"split_indices":[118,47,122,34,157,81,145,118,49,82,110,94,187,177,104,29,85,125,40,7,21,163,124,73,19,94,67,109,109,23,188,0,0,0,0,0,0,0,0,0,0,0,0,0,0,0,0,0,0,0,0,0,0,0,0,0,0,0,0,0,0,0,0],"split_type":[0,0,0,0,0,0,0,0,0,0,0,0,0,0,0,0,0,0,0,0,0,0,0,0,0,0,0,0,0,0,0,0,0,0,0,0,0,0,0,0,0,0,0,0,0,0,0,0,0,0,0,0,0,0,0,0,0,0,0,0,0,0,0],"sum_hessian":[2.1508014E4,7.3490503E3,1.4158963E4,6.9573193E3,3.9173068E2,1.1316959E4,2.8420044E3,6.839206E3,1.1811365E2,2.613917E2,1.3033899E2,1.0266838E4,1.0501202E3,1.6280295E3,1.2139749E3,6.040775E3,7.9843097E2,9.873953E1,1.9374115E1,2.3794023E2,2.3451466E1,1.21589096E2,8.749891E0,4.3446448E2,9.832374E3,7.140101E2,3.3611017E2,1.6085415E3,1.9488049E1,6.05556E2,6.0841876E2,6.0269575E3,1.3817227E1,1.9498648E2,6.0344446E2,1.4382265E0,9.730131E1,1.7910248E1,1.4638672E0,2.3544275E2,2.497475E0,3.61123E0,1.9840237E1,2.4515846E0,1.19137505E2,4.832252E0,3.9176393E0,1.5711703E2,2.7734744E2,9.658834E3,1.7353967E2,6.8970623E0,7.0711304E2,1.8608467E2,1.500255E2,4.942469E0,1.603599E3,5.2043643E0,1.4283684E1,5.6578485E2,3.9771214E1,2.4682298E2,3.6159576E2],"tree_param":{"num_deleted":"0","num_feature":"200","num_nodes":"63","size_leaf_vector":"1"}},{"base_weights":[-1.3952099E-3,1.3450862E0,-6.7592615E-1,1.4377065E0,-3.0182213E-1,-1.0832176E0,9.4999343E-1,1.483286E0,-1.1083338E0,-1.3009738E0,1.4094905E0,-1.3058928E0,1.0163568E0,1.5541873E0,1.4865008E-1,1.5362592E0,9.857289E-1,-1.5685562E0,8.7486017E-1,-1.5962625E0,8.4410554E-1,1.527634E0,-0E0,6.8405265E-1,-1.395005E0,1.5341679E0,-1.3293454E-1,1.5804003E0,-7.0411533E-1,1.3470598E0,-1.016193E0,7.70976E-2,-6.992778E-2,-2.8002322E-2,7.1362175E-2,1.0187308E-2,-8.332313E-2,5.7842243E-2,-2.1907663E-2,-8.0350004E-2,-0E0,-3.2034483E-2,5.877856E-2,-0E0,7.751504E-2,-4.273107E-2,4.972295E-2,-4.313605E-2,7.6955155E-2,-7.169674E-2,4.5705687E-2,7.8700624E-2,-6.8330705E-2,-5.4042157E-2,4.0100887E-2,-3.7906393E-2,7.936727E-2,3.862552E-2,-6.5490514E-2,7.5228564E-2,-6.4295374E-2,-1.9306572E-2,-7.3851325E-2],"categories":[],"categories_nodes":[],"categories_segments":[],"categories_sizes":[],"default_left":[0,0,0,0,0,0,0,0,0,0,0,0,0,0,0,0,0,0,0,0,0,0,0,0,0,0,0,0,0,0,0,0,0,0,0,0,0,0,0,0,0,0,0,0,0,0,0,0,0,0,0,0,0,0,0,0,0,0,0,0,0,0,0],"id":6,"left_children":[1,3,5,7,9,11,13,15,17,19,21,23,25,27,29,31,33,35,37,39,41,43,45,47,49,51,53,55,57,59,61,-1,-1,-1,-1,-1,-1,-1,-1,-1,-1,-1,-1,-1,-1,-1,-1,-1,-1,-1,-1,-1,-1,-1,-1,-1,-1,-1,-1,-1,-1,-1,-1],"loss_changes":[1.921248E4,1.0789004E3,9.33575E3,7.7943066E2,6.481402E2,5.2730293E3,1.3650881E3,1.6757812E2,1.1143776E2,1.5510178E2,2.4184723E1,1.8100859E3,6.454707E2,9.835498E1,1.7017235E3,1.0355176E2,4.3887378E2,1.900203E1,1.0308176E1,4.1693726E0,1.6741535E1,5.631897E0,1.2141352E1,5.822755E2,8.802383E2,9.077759E1,3.00841E2,2.9087402E1,1.9920027E1,2.5336145E2,1.7636987E2,0E0,0E0,0E0,0E0,0E0,0E0,0E0,0E0,0E0,0E0,0E0,0E0,0E0,0E0,0E0,0E0,0E0,0E0,0E0,0E0,0E0,0E0,0E0,0E0,0E0,0E0,0E0,0E0,0E0,0E0,0E0,0E0],"parents":[2147483647,0,0,1,1,2,2,3,3,4,4,5,5,6,6,7,7,8,8,9,9,10,10,11,11,12,12,13,13,14,14,15,15,16,16,17,17,18,18,19,19,20,20,21,21,22,22,23,23,24,24,25,25,26,26,27,27,28,28,29,29,30,30],"right_children":[2,4,6,8,10,12,14,16,18,20,22,24,26,28,30,32,34,36,38,40,42,44,46,48,50,52,54,56,58,60,62,-1,-1,-1,-1,-1,-1,-1,-1,-1,-1,-1,-1,-1,-1,-1,-1,-1,-1,-1,-1,-1,-1,-1,-1,-1,-1,-1,-1,-1,-1,-1,-1],"split_conditions":[-9.4144934E-1,6.900906E-1,-7.250886E-2,1.115656E0,-5.666846E-1,5.5151457E-1,-4.2480335E-1,-1.1820252E0,1.5171018E-1,6.322483E-1,-5.957677E-1,-6.472688E-1,-3.316114E-1,-4.313939E-1,-1.3672888E0,1.1029279E0,6.822957E-2,-4.2901805E-1,-8.3606595E-1,1.841901E0,1.6684996E-1,-6.262647E-1,3.732147E0,-3.8554385E-1,5.167779E-1,-1.3839865E-1,1.6511227E-1,-2.632028E-1,1.245258E0,1.0146507E0,1.2570748E-1,7.70976E-2,-6.992778E-2,-2.8002322E-2,7.1362175E-2,1.0187308E-2,-8.332313E-2,5.7842243E-2,-2.1907663E-2,-8.0350004E-2,-0E0,-3.2034483E-2,5.877856E-2,-0E0,7.751504E-2,-4.273107E-2,4.972295E-2,-4.313605E-2,7.6955155E-2,-7.169674E-2,4.5705687E-2,7.8700624E-2,-6.8330705E-2,-5.4042157E-2,4.0100887E-2,-3.7906393E-2,7.936727E-2,3.862552E-2,-6.5490514E-2,7.5228564E-2,-6.4295374E-2,-1.9306572E-2,-7.3851325E-2],"split_indices":[118,48,122,33,158,82,143,118,49,26,108,94,194,163,104,39,84,66,125,106,81,66,104,73,17,156,180,85,98,23,187,0,0,0,0,0,0,0,0,0,0,0,0,0,0,0,0,0,0,0,0,0,0,0,0,0,0,0,0,0,0,0,0],"split_type":[0,0,0,0,0,0,0,0,0,0,0,0,0,0,0,0,0,0,0,0,0,0,0,0,0,0,0,0,0,0,0,0,0,0,0,0,0,0,0,0,0,0,0,0,0,0,0,0,0,0,0,0,0,0,0,0,0,0,0,0,0,0,0],"sum_hessian":[2.1150184E4,7.057904E3,1.4092279E4,6.6829253E3,3.749788E2,1.1270349E4,2.8219304E3,6.5665967E3,1.1632838E2,2.3742302E2,1.3755577E2,1.0190775E4,1.0795737E3,1.6070933E3,1.214837E3,5.929155E3,6.374419E2,9.516634E1,2.1162027E1,2.0955399E2,2.7869032E1,1.2716806E2,1.038771E1,4.3574146E2,9.755033E3,7.443904E2,3.351833E2,1.5896844E3,1.7408918E1,5.9905994E2,6.157771E2,5.9189634E3,1.0191507E1,1.4099745E2,4.9644443E2,4.334119E0,9.083223E1,1.824351E1,2.9185178E0,2.0835088E2,1.2031206E0,4.194981E0,2.3674051E1,1.4062113E0,1.2576185E2,6.072653E0,4.315057E0,1.5470142E2,2.8104004E2,9.59447E3,1.6056401E2,7.355466E2,8.843821E0,1.6681456E2,1.6836873E2,3.6402686E0,1.5860441E3,4.4233646E0,1.2985554E1,5.664125E2,3.264747E1,2.6259595E2,3.5318115E2],"tree_param":{"num_deleted":"0","num_feature":"200","num_nodes":"63","size_leaf_vector":"1"}},{"base_weights":[-4.105848E-3,1.3764772E0,-6.2008786E-1,1.4225099E0,-3.2470167E-1,-9.005032E-1,1.4101951E0,1.46631E0,-1.9640756E-1,-1.5485104E0,1.1386045E0,-1.1226761E0,1.049456E0,1.5379753E0,-3.919783E-1,-5.1302217E-2,1.4769404E0,1.29118E0,-1.4010468E0,3.1186942E-2,-8.1210785E-2,-3.322092E-1,1.2187629E0,1.2527149E0,-1.3257047E0,2.0603512E-1,1.4323843E0,-6.1262846E-2,1.5483061E0,7.782065E-1,-9.021909E-1,-4.5953076E-2,4.741103E-2,7.513718E-2,4.974582E-2,7.0314266E-2,5.6799087E-3,-7.6925576E-2,4.415219E-2,-0E0,-3.1326886E-2,-2.3004431E-2,6.388974E-2,7.076476E-2,-3.502312E-2,-6.781893E-2,3.0415341E-2,-6.567553E-2,5.0538935E-2,-6.7065693E-3,7.4223876E-2,7.777823E-2,-2.4946274E-2,8.223645E-2,-0E0,2.4785763E-2,-6.772727E-2],"categories":[],"categories_nodes":[],"categories_segments":[],"categories_sizes":[],"default_left":[0,0,0,0,0,0,0,0,0,0,0,0,0,0,0,0,0,0,0,0,0,0,0,0,0,0,0,0,0,0,0,0,0,0,0,0,0,0,0,0,0,0,0,0,0,0,0,0,0,0,0,0,0,0,0,0,0],"id":7,"left_children":[1,3,5,7,9,11,13,15,17,19,21,23,25,27,29,31,33,35,37,-1,-1,39,41,43,45,47,49,-1,51,53,55,-1,-1,-1,-1,-1,-1,-1,-1,-1,-1,-1,-1,-1,-1,-1,-1,-1,-1,-1,-1,-1,-1,-1,-1,-1,-1],"loss_changes":[1.7667162E4,5.0392578E2,8.181158E3,4.444082E2,3.0822247E2,5.4717783E3,4.039143E2,9.962793E1,3.0043707E2,1.8443832E1,1.0911949E1,5.469837E3,4.1500415E2,5.0627197E1,7.110158E1,3.9491005E1,6.9586914E1,8.293396E0,3.251587E1,0E0,0E0,9.150246E-1,9.44622E0,2.8631787E2,6.219551E2,4.9948367E2,7.415869E1,0E0,2.674707E1,2.5004162E1,5.4477898E1,0E0,0E0,0E0,0E0,0E0,0E0,0E0,0E0,0E0,0E0,0E0,0E0,0E0,0E0,0E0,0E0,0E0,0E0,0E0,0E0,0E0,0E0,0E0,0E0,0E0,0E0],"parents":[2147483647,0,0,1,1,2,2,3,3,4,4,5,5,6,6,7,7,8,8,9,9,10,10,11,11,12,12,13,13,14,14,15,15,16,16,17,17,18,18,21,21,22,22,23,23,24,24,25,25,26,26,28,28,29,29,30,30],"right_children":[2,4,6,8,10,12,14,16,18,20,22,24,26,28,30,32,34,36,38,-1,-1,40,42,44,46,48,50,-1,52,54,56,-1,-1,-1,-1,-1,-1,-1,-1,-1,-1,-1,-1,-1,-1,-1,-1,-1,-1,-1,-1,-1,-1,-1,-1,-1,-1],"split_conditions":[-9.955771E-1,1.0814973E0,3.781092E-1,7.188362E-1,8.453148E-2,5.5151457E-1,-2.0919046E-1,-1.1514919E0,-1.2822336E0,-1.8851384E0,-5.807215E-1,-1.1876706E0,1.21562965E-1,-3.4837306E-1,1.245258E0,1.1429597E0,-1.1820252E0,-5.957677E-1,-2.2243527E-1,3.1186942E-2,-8.1210785E-2,-4.9895483E-1,2.5182986E-1,-1.3672888E0,5.513452E-1,1.2684952E-1,2.3825865E0,-6.1262846E-2,8.45134E-1,-5.488976E-1,-6.6308504E-1,-4.5953076E-2,4.741103E-2,7.513718E-2,4.974582E-2,7.0314266E-2,5.6799087E-3,-7.6925576E-2,4.415219E-2,-0E0,-3.1326886E-2,-2.3004431E-2,6.388974E-2,7.076476E-2,-3.502312E-2,-6.781893E-2,3.0415341E-2,-6.567553E-2,5.0538935E-2,-6.7065693E-3,7.4223876E-2,7.777823E-2,-2.4946274E-2,8.223645E-2,-0E0,2.4785763E-2,-6.772727E-2],"split_indices":[119,34,115,49,50,82,171,77,121,125,76,93,108,87,98,185,118,108,139,0,0,195,46,104,14,179,95,0,55,0,47,0,0,0,0,0,0,0,0,0,0,0,0,0,0,0,0,0,0,0,0,0,0,0,0,0,0],"split_type":[0,0,0,0,0,0,0,0,0,0,0,0,0,0,0,0,0,0,0,0,0,0,0,0,0,0,0,0,0,0,0,0,0,0,0,0,0,0,0,0,0,0,0,0,0,0,0,0,0,0,0,0,0,0,0,0,0],"sum_hessian":[2.0771648E4,6.407224E3,1.4364424E4,6.2393086E3,1.6791574E2,1.2622636E4,1.7417872E3,6.075735E3,1.6357372E2,9.17496E1,7.616613E1,1.1332772E4,1.2898635E3,1.6272573E3,1.1452996E2,4.1554996E1,6.0341797E3,7.275547E1,9.0818245E1,2.157452E0,8.959215E1,2.9666843E0,7.319945E1,8.911568E2,1.0441616E4,4.0453656E2,8.853269E2,4.8245306E0,1.6224327E3,3.386023E1,8.066973E1,2.2865364E1,1.868963E1,5.721589E3,3.1259122E2,6.514966E1,7.605816E0,8.66915E1,4.1267505E0,1.2393521E0,1.7273324E0,1.4494632E0,7.1749985E1,8.236591E2,6.7497696E1,1.0279691E4,1.6192412E2,1.3919553E2,2.6534103E2,2.7774166E1,8.5755273E2,1.6176661E3,4.7665854E0,1.5271354E1,1.8588877E1,1.9134922E1,6.153481E1],"tree_param":{"num_deleted":"0","num_feature":"200","num_nodes":"57","size_leaf_vector":"1"}},{"base_weights":[-7.781998E-5,1.3061868E0,-6.1065793E-1,5.6761265E-1,1.4282416E0,-8.8928384E-1,1.3700503E0,1.1717651E0,-1.2464556E0,-6.2983215E-1,1.4419112E0,-1.0980806E0,9.497029E-1,1.4940469E0,-5.1613194E-1,-6.5977937E-1,1.3514814E0,-1.436642E0,6.873844E-1,-1.2612844E0,9.427486E-1,1.4612321E0,4.3721482E-1,1.2117434E0,-1.2920629E0,1.4499705E0,1.5619674E-1,-1.092489E0,1.5069127E0,6.632853E-1,-1.0073639E0,-6.7423135E-2,6.7542344E-2,-5.9369653E-3,7.059749E-2,2.701365E-2,-7.4075416E-2,-2.5287554E-2,5.8874786E-2,-7.796606E-2,1.7293153E-2,-0E0,5.5696428E-2,7.351286E-2,5.5660796E-3,-3.382526E-2,5.0650068E-2,6.8833314E-2,-4.106266E-2,-6.632345E-2,1.147796E-2,7.418315E-2,-6.400149E-2,-3.0590493E-2,7.0181035E-2,-6.400333E-2,-0E0,7.5644754E-2,-1.2182743E-4,5.1381845E-2,-4.0057138E-2,1.1745009E-2,-7.191161E-2],"categories":[],"categories_nodes":[],"categories_segments":[],"categories_sizes":[],"default_left":[0,0,0,0,0,0,0,0,0,0,0,0,0,0,0,0,0,0,0,0,0,0,0,0,0,0,0,0,0,0,0,0,0,0,0,0,0,0,0,0,0,0,0,0,0,0,0,0,0,0,0,0,0,0,0,0,0,0,0,0,0,0,0],"id":8,"left_children":[1,3,5,7,9,11,13,15,17,19,21,23,25,27,29,31,33,35,37,39,41,43,45,47,49,51,53,55,57,59,61,-1,-1,-1,-1,-1,-1,-1,-1,-1,-1,-1,-1,-1,-1,-1,-1,-1,-1,-1,-1,-1,-1,-1,-1,-1,-1,-1,-1,-1,-1,-1,-1],"loss_changes":[1.6276092E4,5.823369E2,7.6772905E3,1.0180679E3,1.5949023E2,4.684508E3,4.0373486E2,2.3168073E2,8.804468E1,4.0131565E1,1.0436426E2,4.91055E3,4.9174048E2,5.7306152E1,6.35608E1,9.09701E1,5.810498E1,2.1374817E1,1.452518E1,1.5802956E1,2.2612839E0,6.428906E1,7.119326E1,2.875298E2,5.3074023E2,7.408386E1,4.6620627E2,2.004737E0,1.6000244E1,1.8953857E1,4.298333E1,0E0,0E0,0E0,0E0,0E0,0E0,0E0,0E0,0E0,0E0,0E0,0E0,0E0,0E0,0E0,0E0,0E0,0E0,0E0,0E0,0E0,0E0,0E0,0E0,0E0,0E0,0E0,0E0,0E0,0E0,0E0,0E0],"parents":[2147483647,0,0,1,1,2,2,3,3,4,4,5,5,6,6,7,7,8,8,9,9,10,10,11,11,12,12,13,13,14,14,15,15,16,16,17,17,18,18,19,19,20,20,21,21,22,22,23,23,24,24,25,25,26,26,27,27,28,28,29,29,30,30],"right_children":[2,4,6,8,10,12,14,16,18,20,22,24,26,28,30,32,34,36,38,40,42,44,46,48,50,52,54,56,58,60,62,-1,-1,-1,-1,-1,-1,-1,-1,-1,-1,-1,-1,-1,-1,-1,-1,-1,-1,-1,-1,-1,-1,-1,-1,-1,-1,-1,-1,-1,-1,-1,-1],"split_conditions":[-9.4391525E-1,-7.649003E-1,3.781092E-1,-9.94643E-1,-8.5066754E-1,5.0959146E-1,-1.8108839E-1,5.1003754E-1,-6.9172645E-1,6.876549E-1,-1.079685E0,-1.1876706E0,-5.035216E-1,-3.4409103E-1,1.245258E0,-8.1693196E-1,-2.392735E0,-3.7411755E-1,3.0769038E0,5.244623E-1,-9.59875E-2,2.4897556E0,3.421959E-1,-1.3672888E0,4.2870945E-1,2.485066E-1,7.9728895E-1,1.3213772E0,8.45134E-1,5.8656055E-1,-5.923342E-1,-6.7423135E-2,6.7542344E-2,-5.9369653E-3,7.059749E-2,2.701365E-2,-7.4075416E-2,-2.5287554E-2,5.8874786E-2,-7.796606E-2,1.7293153E-2,-0E0,5.5696428E-2,7.351286E-2,5.5660796E-3,-3.382526E-2,5.0650068E-2,6.8833314E-2,-4.106266E-2,-6.632345E-2,1.147796E-2,7.418315E-2,-6.400149E-2,-3.0590493E-2,7.0181035E-2,-6.400333E-2,-0E0,7.5644754E-2,-1.2182743E-4,5.1381845E-2,-4.0057138E-2,1.1745009E-2,-7.191161E-2],"split_indices":[119,157,115,127,197,82,173,87,111,82,118,93,190,88,98,139,113,15,94,19,58,91,88,104,18,147,185,20,55,17,50,0,0,0,0,0,0,0,0,0,0,0,0,0,0,0,0,0,0,0,0,0,0,0,0,0,0,0,0,0,0,0,0],"split_type":[0,0,0,0,0,0,0,0,0,0,0,0,0,0,0,0,0,0,0,0,0,0,0,0,0,0,0,0,0,0,0,0,0,0,0,0,0,0,0,0,0,0,0,0,0,0,0,0,0,0,0,0,0,0,0,0,0,0,0,0,0,0,0],"sum_hessian":[2.0403734E4,6.4980347E3,1.39057E4,9.243191E2,5.573716E3,1.2192229E4,1.7134717E3,6.94338E2,2.299811E2,3.5698414E1,5.538017E3,1.0950292E4,1.2419359E3,1.6086649E3,1.0480679E2,6.1068035E1,6.3326996E2,2.1032744E2,1.9653666E1,2.6207064E1,9.491349E0,5.431659E3,1.0635797E2,8.4716125E2,1.0103131E4,7.5992487E2,4.8201102E2,6.746723E0,1.6019182E3,3.001249E1,7.4794304E1,4.6348637E1,1.4719397E1,2.4287262E1,6.089827E2,3.6827822E0,2.0664465E2,5.1098886E0,1.4543777E1,2.268246E1,3.5246036E0,1.4380467E0,8.053303E0,5.394673E3,3.6986248E1,3.5535847E1,7.082212E1,7.84646E2,6.251528E1,9.88063E3,2.2250143E2,7.519243E2,8.00055E0,2.9846887E2,1.8354213E2,5.5945663E0,1.1521567E0,1.5962494E3,5.668799E0,2.5057537E1,4.9549522E0,1.8897745E1,5.589656E1],"tree_param":{"num_deleted":"0","num_feature":"200","num_nodes":"63","size_leaf_vector":"1"}},{"base_weights":[-2.1717548E-3,1.3035377E0,-5.807113E-1,1.3494282E0,-4.325378E-1,-9.3329424E-1,8.680794E-1,1.3914022E0,-1.1483236E-1,-1.5072508E0,8.8804984E-1,-1.2174462E0,8.341963E-1,1.4242359E0,1.3907948E-1,1.3981397E0,-7.814698E-2,1.1955054E0,-1.3093827E0,1.7819181E-2,-7.7822715E-2,2.5049686E-1,1.2034231E0,1.2588556E0,-1.2760581E0,1.4019374E0,9.775498E-2,-1.4469683E-1,1.4551737E0,1.2369595E0,-9.647779E-1,7.880802E-3,7.0528015E-2,-2.0913664E-2,6.2177118E-2,4.5597948E-2,-7.3326096E-2,-5.1807072E-2,4.8546966E-2,-0E0,6.2773965E-2,-6.1310273E-2,7.012754E-2,-6.551842E-2,3.577795E-2,-3.900435E-2,7.388489E-2,-3.7666064E-2,7.568555E-2,4.7593217E-2,-3.7373956E-2,7.334038E-2,-3.4008082E-2,6.906097E-2,-7.169182E-2,-1.8803805E-2,-6.799022E-2],"categories":[],"categories_nodes":[],"categories_segments":[],"categories_sizes":[],"default_left":[0,0,0,0,0,0,0,0,0,0,0,0,0,0,0,0,0,0,0,0,0,0,0,0,0,0,0,0,0,0,0,0,0,0,0,0,0,0,0,0,0,0,0,0,0,0,0,0,0,0,0,0,0,0,0,0,0],"id":9,"left_children":[1,3,5,7,9,11,13,15,17,19,21,23,25,27,29,31,-1,33,35,-1,-1,37,39,41,43,45,47,49,51,53,55,-1,-1,-1,-1,-1,-1,-1,-1,-1,-1,-1,-1,-1,-1,-1,-1,-1,-1,-1,-1,-1,-1,-1,-1,-1,-1],"loss_changes":[1.5096063E4,4.9090918E2,7.076199E3,3.690537E2,2.2890546E2,5.5973945E3,1.0972705E3,1.1991016E2,2.6588345E2,1.0452133E1,1.2452995E1,1.3963682E3,6.4362036E2,7.633325E1,1.428201E3,8.737012E1,0E0,8.118729E0,3.4340317E1,0E0,0E0,2.7399023E1,3.7434769E0,8.308594E1,6.432949E2,1.46943E2,8.163354E2,2.16529E1,4.0243896E1,2.3164044E2,1.337998E2,0E0,0E0,0E0,0E0,0E0,0E0,0E0,0E0,0E0,0E0,0E0,0E0,0E0,0E0,0E0,0E0,0E0,0E0,0E0,0E0,0E0,0E0,0E0,0E0,0E0,0E0],"parents":[2147483647,0,0,1,1,2,2,3,3,4,4,5,5,6,6,7,7,8,8,9,9,10,10,11,11,12,12,13,13,14,14,15,15,17,17,18,18,21,21,22,22,23,23,24,24,25,25,26,26,27,27,28,28,29,29,30,30],"right_children":[2,4,6,8,10,12,14,16,18,20,22,24,26,28,30,32,-1,34,36,-1,-1,38,40,42,44,46,48,50,52,54,56,-1,-1,-1,-1,-1,-1,-1,-1,-1,-1,-1,-1,-1,-1,-1,-1,-1,-1,-1,-1,-1,-1,-1,-1,-1,-1],"split_conditions":[-9.955771E-1,1.1343383E0,-7.250886E-2,7.188362E-1,5.2729733E-2,2.7277896E-1,-4.086362E-1,1.1029279E0,-1.0904663E0,-2.7332094E0,2.1365371E-1,-1.6090899E0,-4.818828E-1,1.1177466E-1,-1.3672888E0,-1.0041122E0,-7.814698E-2,-8.311114E-1,-1.7962041E0,1.7819181E-2,-7.7822715E-2,-7.0017546E-1,-3.4864898E0,-2.7220354E0,5.0875723E-1,1.7020777E0,7.9728895E-1,-3.9330387E-1,-4.225144E-1,1.005747E0,1.178831E-1,7.880802E-3,7.0528015E-2,-2.0913664E-2,6.2177118E-2,4.5597948E-2,-7.3326096E-2,-5.1807072E-2,4.8546966E-2,-0E0,6.2773965E-2,-6.1310273E-2,7.012754E-2,-6.551842E-2,3.577795E-2,-3.900435E-2,7.388489E-2,-3.7666064E-2,7.568555E-2,4.7593217E-2,-3.7373956E-2,7.334038E-2,-3.4008082E-2,6.906097E-2,-7.169182E-2,-1.8803805E-2,-6.799022E-2],"split_indices":[119,32,122,49,48,82,146,39,122,118,82,93,187,88,104,82,0,87,95,0,0,153,118,112,20,93,185,56,163,25,186,0,0,0,0,0,0,0,0,0,0,0,0,0,0,0,0,0,0,0,0,0,0,0,0,0,0],"split_type":[0,0,0,0,0,0,0,0,0,0,0,0,0,0,0,0,0,0,0,0,0,0,0,0,0,0,0,0,0,0,0,0,0,0,0,0,0,0,0,0,0,0,0,0,0,0,0,0,0,0,0,0,0,0,0,0,0],"sum_hessian":[1.9981031E4,6.1336724E3,1.3847358E4,5.976709E3,1.5696341E2,1.1138142E4,2.7092163E3,5.810917E3,1.6579199E2,8.6799385E1,7.0164024E1,9.596535E3,1.5416066E3,1.5349323E3,1.1742839E3,5.799084E3,1.1832971E1,7.8664185E1,8.712781E1,1.3887624E0,8.541062E1,2.5458004E1,4.470602E1,2.2054811E2,9.375987E3,8.687219E2,6.7288464E2,2.8914783E1,1.5060175E3,5.890693E2,5.8521466E2,5.855646E1,5.740528E3,1.2265579E0,7.743762E1,4.7011323E0,8.2426674E1,8.325339E0,1.7132664E1,1.4179026E0,4.328812E1,1.0851769E1,2.0969633E2,9.218365E3,1.5762152E2,2.8083294E1,8.406386E2,4.2041763E2,2.52467E2,9.257196E0,1.9657589E1,1.4989454E3,7.072083E0,5.601534E2,2.891592E1,2.3758342E2,3.4763126E2],"tree_param":{"num_deleted":"0","num_feature":"200","num_nodes":"57","size_leaf_vector":"1"}},{"base_weights":[2.1371054E-3,1.2412455E0,-5.7667583E-1,5.274754E-1,1.3633077E0,-9.1573095E-1,9.082072E-1,1.1331472E0,-1.0676155E0,-5.724163E-1,1.3784832E0,-1.158027E0,7.7633756E-1,1.3971838E0,1.9141959E-1,-3.4913728E-1,1.3400427E0,-1.4336364E0,3.9050952E-1,6.693633E-1,-1.2427449E0,1.3954242E0,5.005792E-1,1.1379666E0,-1.2363349E0,1.3771262E0,-3.0421613E-2,1.4220549E0,-6.9900346E-1,1.1590055E0,-9.9874574E-1,2.5074983E-2,-8.4501386E-2,-2.5793424E-2,6.851214E-2,-7.334728E-2,1.5016304E-2,-2.8551394E-2,5.8612347E-2,-3.385703E-2,5.0376475E-2,-8.382871E-2,3.7253264E-2,-3.6869597E-2,6.998497E-2,-4.1739937E-2,4.8415877E-2,7.112206E-2,-3.0066488E-2,-6.360391E-2,4.04756E-2,-2.354531E-2,7.276834E-2,-3.77814E-2,7.011947E-2,1.0751023E-2,7.172489E-2,3.555045E-2,-5.9210755E-2,6.584523E-2,-3.9644588E-2,1.8471697E-2,-5.8912244E-2],"categories":[],"categories_nodes":[],"categories_segments":[],"categories_sizes":[],"default_left":[0,0,0,0,0,0,0,0,0,0,0,0,0,0,0,0,0,0,0,0,0,0,0,0,0,0,0,0,0,0,0,0,0,0,0,0,0,0,0,0,0,0,0,0,0,0,0,0,0,0,0,0,0,0,0,0,0,0,0,0,0,0,0],"id":10,"left_children":[1,3,5,7,9,11,13,15,17,19,21,23,25,27,29,31,33,35,37,39,41,43,45,47,49,51,53,55,57,59,61,-1,-1,-1,-1,-1,-1,-1,-1,-1,-1,-1,-1,-1,-1,-1,-1,-1,-1,-1,-1,-1,-1,-1,-1,-1,-1,-1,-1,-1,-1,-1,-1],"loss_changes":[1.3985011E4,5.375928E2,6.692402E3,8.827461E2,1.5806055E2,4.438467E3,8.6390063E2,2.0489075E2,1.3629993E2,3.7300877E1,7.4927734E1,1.704957E3,6.587053E2,7.922949E1,1.1600146E3,9.647709E1,3.4875E1,1.3707489E1,4.0616627E1,8.772804E0,2.8075935E1,4.9754883E1,6.6588234E1,1.5732193E2,6.72042E2,1.1484778E2,6.0420496E2,1.9535889E1,1.4526355E1,1.7391663E2,1.1252548E2,0E0,0E0,0E0,0E0,0E0,0E0,0E0,0E0,0E0,0E0,0E0,0E0,0E0,0E0,0E0,0E0,0E0,0E0,0E0,0E0,0E0,0E0,0E0,0E0,0E0,0E0,0E0,0E0,0E0,0E0,0E0,0E0],"parents":[2147483647,0,0,1,1,2,2,3,3,4,4,5,5,6,6,7,7,8,8,9,9,10,10,11,11,12,12,13,13,14,14,15,15,16,16,17,17,18,18,19,19,20,20,21,21,22,22,23,23,24,24,25,25,26,26,27,27,28,28,29,29,30,30],"right_children":[2,4,6,8,10,12,14,16,18,20,22,24,26,28,30,32,34,36,38,40,42,44,46,48,50,52,54,56,58,60,62,-1,-1,-1,-1,-1,-1,-1,-1,-1,-1,-1,-1,-1,-1,-1,-1,-1,-1,-1,-1,-1,-1,-1,-1,-1,-1,-1,-1,-1,-1,-1,-1],"split_conditions":[-9.4391525E-1,-7.508105E-1,-4.709828E-2,-1.063005E0,-8.708352E-1,2.974615E-1,-2.5769064E-1,8.788185E-1,-1.5250582E0,3.3298879E0,-1.079685E0,-1.3611476E0,-4.975282E-1,-1.2911399E-1,3.1249952E-1,-1.4551E0,-2.5544374E0,2.6011008E-1,2.7389457E0,-4.0153328E-1,5.4298987E0,-8.091532E-1,-6.365509E-2,-1.9474602E0,5.4673445E-1,7.1869093E-1,7.0512825E-1,1.2487491E-1,-5.776951E-1,1.0148352E0,-6.389247E-1,2.5074983E-2,-8.4501386E-2,-2.5793424E-2,6.851214E-2,-7.334728E-2,1.5016304E-2,-2.8551394E-2,5.8612347E-2,-3.385703E-2,5.0376475E-2,-8.382871E-2,3.7253264E-2,-3.6869597E-2,6.998497E-2,-4.1739937E-2,4.8415877E-2,7.112206E-2,-3.0066488E-2,-6.360391E-2,4.04756E-2,-2.354531E-2,7.276834E-2,-3.77814E-2,7.011947E-2,1.0751023E-2,7.172489E-2,3.555045E-2,-5.9210755E-2,6.584523E-2,-3.9644588E-2,1.8471697E-2,-5.8912244E-2],"split_indices":[119,155,122,126,194,82,136,88,112,99,118,93,186,164,102,118,112,76,93,41,102,161,85,106,17,108,181,117,0,22,55,0,0,0,0,0,0,0,0,0,0,0,0,0,0,0,0,0,0,0,0,0,0,0,0,0,0,0,0,0,0,0,0],"split_type":[0,0,0,0,0,0,0,0,0,0,0,0,0,0,0,0,0,0,0,0,0,0,0,0,0,0,0,0,0,0,0,0,0,0,0,0,0,0,0,0,0,0,0,0,0,0,0,0,0,0,0,0,0,0,0,0,0,0,0,0,0,0,0],"sum_hessian":[1.9494209E4,6.2066357E3,1.3287574E4,9.091474E2,5.297489E3,1.0818695E4,2.4688787E3,6.598152E2,2.4933224E2,4.012372E1,5.2573647E3,9.464628E3,1.3540675E3,1.4657101E3,1.0031685E3,8.005555E1,5.7975964E2,1.9987794E2,4.9454296E1,1.3544215E1,2.6579504E1,5.1555586E3,1.0180603E2,3.108429E2,9.153785E3,7.7600604E2,5.780614E2,1.4496306E3,1.6079506E1,5.538167E2,4.4935178E2,4.929188E1,3.0763672E1,8.237844E0,5.715218E2,1.9697873E2,2.8992207E0,2.1844915E1,2.760938E1,1.7227395E0,1.1821476E1,2.2487856E1,4.091647E0,9.159684E0,5.146399E3,2.5447311E1,7.635872E1,2.6795605E2,4.288686E1,8.997828E3,1.5595732E2,3.0592636E1,7.454134E2,3.8489365E2,1.9316779E2,1.5984473E1,1.4336461E3,3.3507214E0,1.27287855E1,5.1344446E2,4.0372227E1,5.122403E1,3.9812775E2],"tree_param":{"num_deleted":"0","num_feature":"200","num_nodes":"63","size_leaf_vector":"1"}},{"base_weights":[4.7041937E-3,1.2129569E0,-5.595938E-1,4.7653866E-1,1.3256135E0,-8.1797355E-1,1.2879896E0,1.2038904E0,-8.308718E-1,-8.2309675E-1,1.3390274E0,-1.002596E0,9.460064E-1,1.4020007E0,-2.5054482E-1,-1.0096676E0,1.3152343E0,-1.214176E0,1.1645628E0,-1.2476451E0,4.613769E-1,1.359768E0,3.4491172E-1,9.328365E-1,-1.2022592E0,1.1627648E0,-6.6766524E-1,-5.5196334E-2,1.4118E0,8.768523E-1,-7.23573E-1,1.0384003E-3,-7.0352696E-2,6.799471E-2,1.940265E-2,-7.232722E-2,-8.899419E-3,6.682068E-2,-0E0,-7.008954E-2,6.0001835E-3,4.654444E-2,-2.7259141E-2,-6.270153E-2,6.8279594E-2,-1.5390341E-2,6.1957438E-2,6.2622845E-2,-3.450514E-2,8.889635E-2,-6.0991626E-2,-1.6440883E-2,6.440586E-2,6.0385186E-2,-7.558208E-2,7.086898E-2,-1.7778484E-2,6.1368685E-2,-3.7465487E-2,1.7884549E-2,-6.0211767E-2],"categories":[],"categories_nodes":[],"categories_segments":[],"categories_sizes":[],"default_left":[0,0,0,0,0,0,0,0,0,0,0,0,0,0,0,0,0,0,0,0,0,0,0,0,0,0,0,0,0,0,0,0,0,0,0,0,0,0,0,0,0,0,0,0,0,0,0,0,0,0,0,0,0,0,0,0,0,0,0,0,0],"id":11,"left_children":[1,3,5,7,9,11,13,15,17,19,21,23,25,27,29,31,33,35,37,39,41,43,45,47,49,51,53,-1,55,57,59,-1,-1,-1,-1,-1,-1,-1,-1,-1,-1,-1,-1,-1,-1,-1,-1,-1,-1,-1,-1,-1,-1,-1,-1,-1,-1,-1,-1,-1,-1],"loss_changes":[1.296291E4,4.9909863E2,6.187744E3,7.7017786E2,1.5396777E2,3.7049326E3,2.8078638E2,1.3114825E2,2.2415948E2,2.0114223E1,1.049082E2,3.9806738E3,3.7904065E2,3.9802246E1,6.0204113E1,1.1931459E1,1.7755188E1,5.6632202E1,1.0017227E1,7.1367645E0,5.727367E0,8.1288086E1,6.605599E1,5.0200378E2,4.9257227E2,1.7970288E2,2.0711562E2,0E0,1.66333E1,2.114343E1,4.3167313E1,0E0,0E0,0E0,0E0,0E0,0E0,0E0,0E0,0E0,0E0,0E0,0E0,0E0,0E0,0E0,0E0,0E0,0E0,0E0,0E0,0E0,0E0,0E0,0E0,0E0,0E0,0E0,0E0,0E0,0E0],"parents":[2147483647,0,0,1,1,2,2,3,3,4,4,5,5,6,6,7,7,8,8,9,9,10,10,11,11,12,12,13,13,14,14,15,15,16,16,17,17,18,18,19,19,20,20,21,21,22,22,23,23,24,24,25,25,26,26,28,28,29,29,30,30],"right_children":[2,4,6,8,10,12,14,16,18,20,22,24,26,28,30,32,34,36,38,40,42,44,46,48,50,52,54,-1,56,58,60,-1,-1,-1,-1,-1,-1,-1,-1,-1,-1,-1,-1,-1,-1,-1,-1,-1,-1,-1,-1,-1,-1,-1,-1,-1,-1,-1,-1,-1,-1],"split_conditions":[-9.4391525E-1,-7.80749E-1,3.781092E-1,-1.175246E0,-9.5331514E-1,5.9473467E-1,-2.2096336E-1,-2.866083E-1,3.835063E-1,-4.4821787E-1,-1.079685E0,-6.472688E-1,5.634838E-1,-3.7127686E-1,1.245258E0,-2.8751788E0,-1.2318757E0,-8.881617E-2,1.5638234E-1,2.117577E0,-7.976722E-2,-1.1505133E0,-4.477041E-2,-1.1986665E0,-1.4508997E0,-2.0320718E0,-1.0088391E0,-5.5196334E-2,6.0548633E-1,5.167779E-1,-4.191811E-1,1.0384003E-3,-7.0352696E-2,6.799471E-2,1.940265E-2,-7.232722E-2,-8.899419E-3,6.682068E-2,-0E0,-7.008954E-2,6.0001835E-3,4.654444E-2,-2.7259141E-2,-6.270153E-2,6.8279594E-2,-1.5390341E-2,6.1957438E-2,6.2622845E-2,-3.450514E-2,8.889635E-2,-6.0991626E-2,-1.6440883E-2,6.440586E-2,6.0385186E-2,-7.558208E-2,7.086898E-2,-1.7778484E-2,6.1368685E-2,-3.7465487E-2,1.7884549E-2,-6.0211767E-2],"split_indices":[119,158,115,126,177,82,170,83,81,134,118,94,18,85,98,109,125,199,27,93,141,199,111,105,174,111,170,0,63,17,47,0,0,0,0,0,0,0,0,0,0,0,0,0,0,0,0,0,0,0,0,0,0,0,0,0,0,0,0,0,0],"split_type":[0,0,0,0,0,0,0,0,0,0,0,0,0,0,0,0,0,0,0,0,0,0,0,0,0,0,0,0,0,0,0,0,0,0,0,0,0,0,0,0,0,0,0,0,0,0,0,0,0,0,0,0,0,0,0,0,0,0,0,0,0],"sum_hessian":[1.900742E4,6.050914E3,1.2956507E4,8.0541E2,5.245504E3,1.1368331E4,1.5881758E3,5.180991E2,2.8731088E2,3.1332071E1,5.214172E3,1.02925205E4,1.0758102E3,1.4793761E3,1.0879972E2,2.3609804E1,4.944893E2,2.4209157E2,4.5219326E1,2.4176914E1,7.1551585E0,5.105904E3,1.0826804E2,9.613489E2,9.331172E3,9.4945245E2,1.2635776E2,4.495171E0,1.4748809E3,3.1027811E1,7.777191E1,6.3981724E0,1.7211632E1,4.6984616E2,2.4643118E1,1.9631108E2,4.578048E1,3.9464916E1,5.7544127E0,2.2340235E1,1.8366792E0,5.659235E0,1.4959233E0,1.0016387E1,5.0958877E3,6.2697437E1,4.5570606E1,8.040689E2,1.5727998E2,5.3192654E1,9.2779795E3,7.273588E1,8.7671655E2,3.8581165E1,8.777659E1,1.4711982E3,3.6826732E0,2.64351E1,4.5927105E0,2.345051E1,5.4321404E1],"tree_param":{"num_deleted":"0","num_feature":"200","num_nodes":"61","size_leaf_vector":"1"}},{"base_weights":[-7.5063994E-3,1.1737543E0,-5.5923325E-1,4.6259335E-1,1.3002573E0,-8.103948E-1,1.2082951E0,9.80493E-1,-1.1425102E0,-6.801928E-1,1.3206061E0,-9.847675E-1,9.229598E-1,1.3699303E0,-4.9703947E-1,-3.888618E-1,1.2085251E0,-1.3123778E0,5.5902714E-1,-1.2371761E0,9.8430073E-1,1.3388072E0,6.4274603E-1,1.0885202E0,-1.1617337E0,1.1378229E0,-6.239472E-1,-5.9353735E-2,1.3820252E0,5.5293727E-1,-9.6882164E-1,1.915756E-2,-6.895556E-2,1.2959546E-3,6.4471774E-2,1.4625015E-2,-6.93845E-2,-2.2384783E-3,5.9643704E-2,3.332707E-2,-7.6165535E-2,-0E0,5.6990184E-2,6.7512885E-2,2.6187746E-2,-1.34749515E-2,6.0931183E-2,-5.794652E-2,6.0389787E-2,-5.953262E-2,2.821671E-2,-1.9240761E-2,6.3383006E-2,6.2205225E-2,-6.708077E-2,6.9519825E-2,-4.635641E-2,6.367697E-2,-1.379774E-2,-1.9429613E-2,-6.957873E-2],"categories":[],"categories_nodes":[],"categories_segments":[],"categories_sizes":[],"default_left":[0,0,0,0,0,0,0,0,0,0,0,0,0,0,0,0,0,0,0,0,0,0,0,0,0,0,0,0,0,0,0,0,0,0,0,0,0,0,0,0,0,0,0,0,0,0,0,0,0,0,0,0,0,0,0,0,0,0,0,0,0],"id":12,"left_children":[1,3,5,7,9,11,13,15,17,19,21,23,25,27,29,31,33,35,37,39,41,43,45,47,49,51,53,-1,55,57,59,-1,-1,-1,-1,-1,-1,-1,-1,-1,-1,-1,-1,-1,-1,-1,-1,-1,-1,-1,-1,-1,-1,-1,-1,-1,-1,-1,-1,-1,-1],"loss_changes":[1.2071257E4,5.275034E2,5.6067954E3,7.45889E2,2.0408398E2,3.3438545E3,4.3533472E2,2.1348364E2,6.544153E1,5.062789E1,5.741797E1,3.6891787E3,3.380149E2,4.7895508E1,6.933379E1,7.672781E1,5.434143E1,2.6081299E1,9.18566E0,2.4720253E1,2.6861048E0,4.1706055E1,7.243418E1,2.1482947E2,4.6414062E2,1.7763147E2,1.6973326E2,0E0,3.0700195E1,2.7431198E1,2.0658478E1,0E0,0E0,0E0,0E0,0E0,0E0,0E0,0E0,0E0,0E0,0E0,0E0,0E0,0E0,0E0,0E0,0E0,0E0,0E0,0E0,0E0,0E0,0E0,0E0,0E0,0E0,0E0,0E0,0E0,0E0],"parents":[2147483647,0,0,1,1,2,2,3,3,4,4,5,5,6,6,7,7,8,8,9,9,10,10,11,11,12,12,13,13,14,14,15,15,16,16,17,17,18,18,19,19,20,20,21,21,22,22,23,23,24,24,25,25,26,26,28,28,29,29,30,30],"right_children":[2,4,6,8,10,12,14,16,18,20,22,24,26,28,30,32,34,36,38,40,42,44,46,48,50,52,54,-1,56,58,60,-1,-1,-1,-1,-1,-1,-1,-1,-1,-1,-1,-1,-1,-1,-1,-1,-1,-1,-1,-1,-1,-1,-1,-1,-1,-1,-1,-1,-1,-1],"split_conditions":[-9.213026E-1,-7.393391E-1,3.6595026E-1,-9.630005E-1,-8.708352E-1,5.9473467E-1,-4.62078E-1,8.788185E-1,-7.040927E-1,9.8669773E-1,-1.079685E0,-1.1876706E0,4.5318386E-1,-4.3328092E-1,2.592121E0,-1.4229014E0,-2.2559028E0,-6.712356E-2,3.166785E0,-7.6314604E-1,-9.275131E-2,9.6563125E-1,5.6160235E-1,-2.8627625E0,5.513452E-1,-2.055346E0,-9.9833244E-1,-5.9353735E-2,4.709149E-1,-2.9049352E-1,1.7818886E-1,1.915756E-2,-6.895556E-2,1.2959546E-3,6.4471774E-2,1.4625015E-2,-6.93845E-2,-2.2384783E-3,5.9643704E-2,3.332707E-2,-7.6165535E-2,-0E0,5.6990184E-2,6.7512885E-2,2.6187746E-2,-1.34749515E-2,6.0931183E-2,-5.794652E-2,6.0389787E-2,-5.953262E-2,2.821671E-2,-1.9240761E-2,6.3383006E-2,6.2205225E-2,-6.708077E-2,6.9519825E-2,-4.635641E-2,6.367697E-2,-1.379774E-2,-1.9429613E-2,-6.957873E-2],"split_indices":[119,153,114,128,194,82,185,88,111,92,118,93,20,85,102,119,113,28,94,8,23,37,89,111,14,111,173,0,152,0,190,0,0,0,0,0,0,0,0,0,0,0,0,0,0,0,0,0,0,0,0,0,0,0,0,0,0,0,0,0,0],"split_type":[0,0,0,0,0,0,0,0,0,0,0,0,0,0,0,0,0,0,0,0,0,0,0,0,0,0,0,0,0,0,0,0,0,0,0,0,0,0,0,0,0,0,0,0,0,0,0,0,0,0,0,0,0,0,0,0,0,0,0,0,0],"sum_hessian":[1.8518705E4,5.894458E3,1.2624246E4,8.927746E2,5.0016836E3,1.1055005E4,1.5692411E3,6.760446E2,2.1673E2,4.970938E1,4.951974E3,1.004585E4,1.0091557E3,1.4342771E3,1.3496397E2,9.568014E1,5.803645E2,1.9800764E2,1.8722345E1,3.8080784E1,1.1628596E1,4.819151E3,1.3282323E2,7.8877905E2,9.25707E3,8.871124E2,1.2204327E2,5.4484525E0,1.4288286E3,4.1078312E1,9.3885666E1,5.388607E1,4.179407E1,3.8124702E1,5.422398E2,8.02171E0,1.8998593E2,9.73241E0,8.989934E0,4.1717057E0,3.390908E1,1.3974346E0,1.0231162E1,4.749881E3,6.927015E1,5.1140057E1,8.168317E1,3.8450916E1,7.503281E2,9.105713E3,1.5135776E2,6.878784E1,8.183246E2,3.307926E1,8.8964005E1,1.4248918E3,3.936747E0,2.204603E1,1.903228E1,4.2187317E1,5.169835E1],"tree_param":{"num_deleted":"0","num_feature":"200","num_nodes":"61","size_leaf_vector":"1"}},{"base_weights":[-4.116209E-4,1.1608089E0,-5.3251606E-1,4.9110064E-1,1.2708648E0,-7.76393E-1,1.2260404E0,1.0082259E0,-1.0739605E0,-5.814303E-1,1.2845918E0,-9.559831E-1,9.019788E-1,1.3426983E0,-4.95786E-1,-4.4422555E-1,1.2209468E0,-1.3394705E0,3.3583724E-1,8.081173E-1,-1.1746238E0,1.300936E0,3.4605882E-1,9.2733854E-1,-1.143634E0,1.0896202E0,-7.364337E-1,-5.99491E-2,1.35588E0,5.856358E-1,-8.762092E-1,1.1960906E-2,-7.622082E-2,-8.815648E-5,6.463998E-2,2.8054073E-2,-6.856353E-2,-9.250171E-3,5.6953765E-2,-0E0,5.114869E-2,-7.064938E-2,1.881824E-2,-6.492194E-2,6.5356165E-2,-8.3525844E-2,5.332923E-2,-6.460551E-2,5.7196606E-2,-5.89211E-2,2.105788E-2,1.0433367E-2,6.379925E-2,5.862945E-2,-7.5440444E-2,6.809352E-2,-0E0,-1.7915014E-2,5.5235464E-2,-0E0,-5.7387203E-2],"categories":[],"categories_nodes":[],"categories_segments":[],"categories_sizes":[],"default_left":[0,0,0,0,0,0,0,0,0,0,0,0,0,0,0,0,0,0,0,0,0,0,0,0,0,0,0,0,0,0,0,0,0,0,0,0,0,0,0,0,0,0,0,0,0,0,0,0,0,0,0,0,0,0,0,0,0,0,0,0,0],"id":13,"left_children":[1,3,5,7,9,11,13,15,17,19,21,23,25,27,29,31,33,35,37,39,41,43,45,47,49,51,53,-1,55,57,59,-1,-1,-1,-1,-1,-1,-1,-1,-1,-1,-1,-1,-1,-1,-1,-1,-1,-1,-1,-1,-1,-1,-1,-1,-1,-1,-1,-1,-1,-1],"loss_changes":[1.1150522E4,4.1493457E2,5.3094463E3,6.5351E2,1.25961426E2,3.2785107E3,3.050083E2,1.8924646E2,7.6910126E1,3.2473057E1,7.158887E1,3.4734072E3,3.2515765E2,5.0750977E1,4.1050087E1,5.985129E1,4.7871582E1,1.2600616E1,1.5080926E1,2.8221478E0,1.2083359E1,7.977344E1,1.2863734E2,4.3092084E2,4.8803418E2,1.5306702E2,1.6411124E2,0E0,1.2597656E1,1.4105081E1,1.6269299E1,0E0,0E0,0E0,0E0,0E0,0E0,0E0,0E0,0E0,0E0,0E0,0E0,0E0,0E0,0E0,0E0,0E0,0E0,0E0,0E0,0E0,0E0,0E0,0E0,0E0,0E0,0E0,0E0,0E0,0E0],"parents":[2147483647,0,0,1,1,2,2,3,3,4,4,5,5,6,6,7,7,8,8,9,9,10,10,11,11,12,12,13,13,14,14,15,15,16,16,17,17,18,18,19,19,20,20,21,21,22,22,23,23,24,24,25,25,26,26,28,28,29,29,30,30],"right_children":[2,4,6,8,10,12,14,16,18,20,22,24,26,28,30,32,34,36,38,40,42,44,46,48,50,52,54,-1,56,58,60,-1,-1,-1,-1,-1,-1,-1,-1,-1,-1,-1,-1,-1,-1,-1,-1,-1,-1,-1,-1,-1,-1,-1,-1,-1,-1,-1,-1,-1,-1],"split_conditions":[-9.4391525E-1,-7.720725E-1,3.781092E-1,-9.94643E-1,-9.058073E-1,4.8651797E-1,-2.8002703E-1,8.788185E-1,-1.422212E0,-2.190099E0,9.6563125E-1,-8.4013975E-1,8.7372446E-1,-3.7127686E-1,-5.5062973E-1,-1.3877861E0,-2.2559028E0,-6.340425E-1,2.7932515E0,-1.2976879E0,5.9250176E-1,-1.1505133E0,1.2687777E-1,-2.8627625E0,4.545751E-1,6.5830517E-1,-1.0460598E0,-5.99491E-2,2.9761323E-1,1.0894351E-2,-4.191811E-1,1.1960906E-2,-7.622082E-2,-8.815648E-5,6.463998E-2,2.8054073E-2,-6.856353E-2,-9.250171E-3,5.6953765E-2,-0E0,5.114869E-2,-7.064938E-2,1.881824E-2,-6.492194E-2,6.5356165E-2,-8.3525844E-2,5.332923E-2,-6.460551E-2,5.7196606E-2,-5.89211E-2,2.105788E-2,1.0433367E-2,6.379925E-2,5.862945E-2,-7.5440444E-2,6.809352E-2,-0E0,-1.7915014E-2,5.5235464E-2,-0E0,-5.7387203E-2],"split_indices":[119,157,115,127,176,81,178,88,112,122,37,94,21,85,105,117,113,61,106,169,13,199,50,111,16,81,169,0,143,84,47,0,0,0,0,0,0,0,0,0,0,0,0,0,0,0,0,0,0,0,0,0,0,0,0,0,0,0,0,0,0],"split_type":[0,0,0,0,0,0,0,0,0,0,0,0,0,0,0,0,0,0,0,0,0,0,0,0,0,0,0,0,0,0,0,0,0,0,0,0,0,0,0,0,0,0,0,0,0,0,0,0,0,0,0,0,0,0,0,0,0,0,0,0,0],"sum_hessian":[1.8043127E4,5.668475E3,1.2374651E4,8.0287305E2,4.865602E3,1.086902E4,1.5056321E3,6.0448914E2,1.9838393E2,3.464826E1,4.830954E3,9.819738E3,1.0492808E3,1.4110511E3,9.458103E1,7.63431E1,5.28146E2,1.6762404E2,3.0759874E1,9.644867E0,2.5003391E1,4.746458E3,8.4495705E1,8.8856946E2,8.931169E3,9.4260754E2,1.0667318E2,5.9606123E0,1.4050905E3,2.3648468E1,7.093256E1,4.714529E1,2.9197811E1,2.8649733E1,4.9949628E2,1.6932154E0,1.6593083E2,1.8838737E1,1.1921138E1,1.6810684E0,7.963799E0,2.2385738E1,2.6176517E0,9.895509E0,4.7365625E3,2.1183485E1,6.3312218E1,7.771104E1,8.1085846E2,8.738041E3,1.9312842E2,1.6626614E2,7.7634143E2,3.0055698E1,7.6617485E1,1.3995315E3,5.5590177E0,7.926702E0,1.5721766E1,1.807654E1,5.285602E1],"tree_param":{"num_deleted":"0","num_feature":"200","num_nodes":"61","size_leaf_vector":"1"}},{"base_weights":[3.9269082E-4,1.1079159E0,-5.3660715E-1,4.154541E-1,1.250662E0,-7.8503853E-1,1.1644591E0,1.0298358E0,-9.294139E-1,-7.6844895E-1,1.2672153E0,1.0182693E0,-9.3389475E-1,1.318858E0,-4.5858324E-1,-4.8063257E-1,1.1947883E0,-1.1839888E0,9.19568E-1,6.838118E-1,-1.220063E0,-8.567765E-1,1.2743963E0,1.2397395E0,-2.8792268E-1,-1.141218E0,5.638949E-1,-6.455621E-1,1.332411E0,7.927601E-1,-8.280993E-1,1.0584604E-2,-5.694865E-2,6.446331E-2,3.0396221E-2,4.4254296E-2,-6.532647E-2,-4.6975948E-2,5.8162432E-2,-3.382643E-3,4.754807E-2,-6.771246E-2,1.28956335E-2,4.1072946E-2,-7.6814145E-2,6.437888E-2,2.2685945E-2,6.714194E-2,-3.9851904E-2,-7.1333766E-2,1.8833075E-2,-5.8577586E-2,2.0631181E-2,6.342123E-2,-1.5329539E-2,5.527873E-3,-4.760506E-2,6.6921465E-2,-3.3887677E-2,7.3415555E-2,-1.2044232E-2,8.040859E-3,-5.8791816E-2],"categories":[],"categories_nodes":[],"categories_segments":[],"categories_sizes":[],"default_left":[0,0,0,0,0,0,0,0,0,0,0,0,0,0,0,0,0,0,0,0,0,0,0,0,0,0,0,0,0,0,0,0,0,0,0,0,0,0,0,0,0,0,0,0,0,0,0,0,0,0,0,0,0,0,0,0,0,0,0,0,0,0,0],"id":14,"left_children":[1,3,5,7,9,11,13,15,17,19,21,23,25,27,29,31,33,35,37,39,41,43,45,47,49,51,53,55,57,59,61,-1,-1,-1,-1,-1,-1,-1,-1,-1,-1,-1,-1,-1,-1,-1,-1,-1,-1,-1,-1,-1,-1,-1,-1,-1,-1,-1,-1,-1,-1,-1,-1],"loss_changes":[1.05201045E4,5.6825977E2,5.0351553E3,8.211908E2,1.6243604E2,2.7922197E3,3.8252368E2,1.717846E2,1.4903415E2,2.8228518E1,7.5038574E1,2.3109381E2,2.9841738E3,3.934497E1,6.2754227E1,3.239126E1,3.0690857E1,7.248239E1,1.97785E1,3.0533404E0,8.044113E0,2.2316515E1,4.8305664E1,1.453009E2,8.987219E1,3.9941797E2,7.1835986E2,3.4505506E0,1.9157959E1,2.3358133E1,3.719848E1,0E0,0E0,0E0,0E0,0E0,0E0,0E0,0E0,0E0,0E0,0E0,0E0,0E0,0E0,0E0,0E0,0E0,0E0,0E0,0E0,0E0,0E0,0E0,0E0,0E0,0E0,0E0,0E0,0E0,0E0,0E0,0E0],"parents":[2147483647,0,0,1,1,2,2,3,3,4,4,5,5,6,6,7,7,8,8,9,9,10,10,11,11,12,12,13,13,14,14,15,15,16,16,17,17,18,18,19,19,20,20,21,21,22,22,23,23,24,24,25,25,26,26,27,27,28,28,29,29,30,30],"right_children":[2,4,6,8,10,12,14,16,18,20,22,24,26,28,30,32,34,36,38,40,42,44,46,48,50,52,54,56,58,60,62,-1,-1,-1,-1,-1,-1,-1,-1,-1,-1,-1,-1,-1,-1,-1,-1,-1,-1,-1,-1,-1,-1,-1,-1,-1,-1,-1,-1,-1,-1,-1,-1],"split_conditions":[-8.79633E-1,-7.257221E-1,3.6595026E-1,-1.0705656E0,-8.4946907E-1,-1.1876706E0,-3.9724007E-1,6.837706E-1,3.5669008E-1,-1.883742E0,-9.646726E-1,-1.9474602E0,3.1036502E-1,-2.632028E-1,-9.8782367E-1,-1.7482604E0,-1.2242639E0,-1.2345695E0,-2.6256995E0,-1.1081322E0,8.364201E-1,-1.1247029E0,-9.6387863E-1,9.052535E-1,-2.6659808E0,4.655283E-1,-5.518041E-1,-8.59084E-1,6.3986456E-1,-2.8091606E-1,-4.191811E-1,1.0584604E-2,-5.694865E-2,6.446331E-2,3.0396221E-2,4.4254296E-2,-6.532647E-2,-4.6975948E-2,5.8162432E-2,-3.382643E-3,4.754807E-2,-6.771246E-2,1.28956335E-2,4.1072946E-2,-7.6814145E-2,6.437888E-2,2.2685945E-2,6.714194E-2,-3.9851904E-2,-7.1333766E-2,1.8833075E-2,-5.8577586E-2,2.0631181E-2,6.342123E-2,-1.5329539E-2,5.527873E-3,-4.760506E-2,6.6921465E-2,-3.3887677E-2,7.3415555E-2,-1.2044232E-2,8.040859E-3,-5.8791816E-2],"split_indices":[119,154,114,125,173,93,180,88,80,120,197,106,83,85,103,116,124,135,99,169,83,8,118,23,96,19,183,47,65,0,47,0,0,0,0,0,0,0,0,0,0,0,0,0,0,0,0,0,0,0,0,0,0,0,0,0,0,0,0,0,0,0,0],"split_type":[0,0,0,0,0,0,0,0,0,0,0,0,0,0,0,0,0,0,0,0,0,0,0,0,0,0,0,0,0,0,0,0,0,0,0,0,0,0,0,0,0,0,0,0,0,0,0,0,0,0,0,0,0,0,0,0,0,0,0,0,0,0,0],"sum_hessian":[1.7683623E4,5.774295E3,1.1909328E4,9.894236E2,4.784871E3,1.0393133E4,1.5161952E3,6.79992E2,3.0943158E2,3.767863E1,4.747193E3,7.910932E2,9.60204E3,1.3853944E3,1.3080072E2,6.597446E1,6.140176E2,2.7309146E2,3.6340137E1,8.168501E0,2.9510128E1,1.4729374E1,4.7324634E3,6.771474E2,1.139458E2,8.435541E3,1.1664987E3,8.348098E0,1.3770463E3,2.8680143E1,1.02120575E2,3.207823E1,3.3896225E1,5.2534564E2,8.867191E1,1.4117281E1,2.5897415E2,3.073907E0,3.326623E1,1.5523106E0,6.6161904E0,2.7827665E1,1.6824622E0,3.7004895E0,1.1028884E1,4.6553354E3,7.7128044E1,6.456383E2,3.1509113E1,4.17018E1,7.2244E1,8.275132E3,1.604096E2,6.448347E2,5.2166394E2,1.8359438E0,6.512154E0,1.3740983E3,2.9480228E0,1.742091E1,1.12592325E1,2.609872E1,7.602186E1],"tree_param":{"num_deleted":"0","num_feature":"200","num_nodes":"63","size_leaf_vector":"1"}},{"base_weights":[3.6694834E-3,1.0623674E0,-5.2526134E-1,5.8481183E-2,1.1855451E0,-8.5209334E-1,7.674282E-1,1.1112636E0,-1.0992041E0,1.2125475E0,-3.415387E-1,-1.0393804E0,6.385141E-1,1.279555E0,1.1865201E-1,-6.616148E-1,1.2471721E0,9.371551E-1,-1.2787515E0,1.2567973E0,6.58813E-1,1.1279925E0,-1.3053088E0,3.5933873E-1,-1.1207254E0,1.2632402E0,-3.1658682E-1,1.3009363E0,-8.1101286E-1,1.0340227E0,-8.3360565E-1,-0E0,-7.142694E-2,-3.600846E-2,6.464551E-2,-1.7619455E-2,5.7693537E-2,-6.7821845E-2,3.257008E-2,-1.7255854E-2,6.331571E-2,-3.8758285E-2,5.4469746E-2,-3.078121E-2,6.244346E-2,1.2085771E-2,-7.475938E-2,-3.541611E-2,5.725764E-2,-5.78982E-2,2.5157342E-2,-8.274941E-3,6.6696525E-2,4.185086E-2,-4.3197405E-2,6.554513E-2,-5.8726408E-3,-6.3711785E-2,2.001457E-2,5.763007E-2,-5.35503E-2,-5.3620376E-2,7.085693E-3],"categories":[],"categories_nodes":[],"categories_segments":[],"categories_sizes":[],"default_left":[0,0,0,0,0,0,0,0,0,0,0,0,0,0,0,0,0,0,0,0,0,0,0,0,0,0,0,0,0,0,0,0,0,0,0,0,0,0,0,0,0,0,0,0,0,0,0,0,0,0,0,0,0,0,0,0,0,0,0,0,0,0,0],"id":15,"left_children":[1,3,5,7,9,11,13,15,17,19,21,23,25,27,29,31,33,35,37,39,41,43,45,47,49,51,53,55,57,59,61,-1,-1,-1,-1,-1,-1,-1,-1,-1,-1,-1,-1,-1,-1,-1,-1,-1,-1,-1,-1,-1,-1,-1,-1,-1,-1,-1,-1,-1,-1,-1,-1],"loss_changes":[9.6169375E3,7.0616455E2,4.839327E3,7.6827014E2,2.1181445E2,2.5538066E3,7.662483E2,8.187601E1,1.1235712E2,1.1913965E2,1.2981319E2,9.257451E2,6.1097266E2,6.0290527E1,8.933756E2,1.1623087E1,3.0168335E1,8.600122E0,4.3979553E1,7.243506E1,2.344502E2,9.7777405E0,1.8238388E1,3.7730252E2,4.6607422E2,6.405823E1,2.5703076E2,1.9578125E1,9.651251E0,1.330661E2,1.1811252E2,0E0,0E0,0E0,0E0,0E0,0E0,0E0,0E0,0E0,0E0,0E0,0E0,0E0,0E0,0E0,0E0,0E0,0E0,0E0,0E0,0E0,0E0,0E0,0E0,0E0,0E0,0E0,0E0,0E0,0E0,0E0,0E0],"parents":[2147483647,0,0,1,1,2,2,3,3,4,4,5,5,6,6,7,7,8,8,9,9,10,10,11,11,12,12,13,13,14,14,15,15,16,16,17,17,18,18,19,19,20,20,21,21,22,22,23,23,24,24,25,25,26,26,27,27,28,28,29,29,30,30],"right_children":[2,4,6,8,10,12,14,16,18,20,22,24,26,28,30,32,34,36,38,40,42,44,46,48,50,52,54,56,58,60,62,-1,-1,-1,-1,-1,-1,-1,-1,-1,-1,-1,-1,-1,-1,-1,-1,-1,-1,-1,-1,-1,-1,-1,-1,-1,-1,-1,-1,-1,-1,-1,-1],"split_conditions":[-8.98988E-1,-8.520447E-1,-7.250886E-2,-1.1790863E0,1.1413313E0,3.5737547E-1,-3.1564516E-1,4.4801217E-1,-1.3392876E0,-1.079685E0,-5.957677E-1,-3.8681296E-1,-4.6010804E-1,-2.0827457E-1,-7.374066E-1,-1.7323974E0,-2.4544294E0,-2.1260138E-1,5.210562E-3,-1.1514919E0,-3.0816498E-1,-5.660569E-1,-1.3152739E0,-4.2266074E-1,4.2185873E-1,5.8192563E-1,-1.4249896E-1,3.5674086E-1,1.2407254E0,1.0123491E0,3.5475522E-1,-0E0,-7.142694E-2,-3.600846E-2,6.464551E-2,-1.7619455E-2,5.7693537E-2,-6.7821845E-2,3.257008E-2,-1.7255854E-2,6.331571E-2,-3.8758285E-2,5.4469746E-2,-3.078121E-2,6.244346E-2,1.2085771E-2,-7.475938E-2,-3.541611E-2,5.725764E-2,-5.78982E-2,2.5157342E-2,-8.274941E-3,6.6696525E-2,4.185086E-2,-4.3197405E-2,6.554513E-2,-5.8726408E-3,-6.3711785E-2,2.001457E-2,5.763007E-2,-5.35503E-2,-5.3620376E-2,7.085693E-3],"split_indices":[118,176,122,133,31,82,136,86,123,118,108,94,181,154,92,121,113,57,110,77,79,75,123,75,17,108,94,51,172,26,121,0,0,0,0,0,0,0,0,0,0,0,0,0,0,0,0,0,0,0,0,0,0,0,0,0,0,0,0,0,0,0,0],"split_type":[0,0,0,0,0,0,0,0,0,0,0,0,0,0,0,0,0,0,0,0,0,0,0,0,0,0,0,0,0,0,0,0,0,0,0,0,0,0,0,0,0,0,0,0,0,0,0,0,0,0,0,0,0,0,0,0,0,0,0,0,0,0,0],"sum_hessian":[1.7168826E4,5.7198853E3,1.1448941E4,6.263401E2,5.093545E3,9.139617E3,2.3093235E3,3.2852664E2,2.9781348E2,5.0060923E3,8.74528E1,8.1205845E3,1.01903296E3,1.2886284E3,1.020695E3,2.2316868E1,3.0620978E2,2.2995754E1,2.7481772E2,4.6316265E3,3.744657E2,3.4091934E1,5.3360867E1,4.4525986E2,7.6753247E3,6.1630994E2,4.0272305E2,1.2768036E3,1.1824854E1,5.208751E2,4.998199E2,1.3405338E1,8.91153E0,5.790406E0,3.0041937E2,2.464508E0,2.0531246E1,2.6525424E2,9.5634575E0,2.6316742E1,4.60531E3,8.556923E1,2.8889645E2,1.1431645E0,3.294877E1,5.198E0,4.8162865E1,1.8832E2,2.5693985E2,7.5044233E3,1.709017E2,2.8262465E1,5.880474E2,1.2866557E2,2.7405746E2,1.2687456E3,8.058019E0,9.075777E0,2.749077E0,4.944047E2,2.6470407E1,4.0217557E2,9.764433E1],"tree_param":{"num_deleted":"0","num_feature":"200","num_nodes":"63","size_leaf_vector":"1"}},{"base_weights":[-2.0492089E-3,1.13244E0,-4.7918645E-1,1.1770318E0,-3.7651625E-1,-6.9923294E-1,1.1180415E0,2.8855863E-1,1.2256705E0,-1.4256037E0,8.61786E-1,-8.989934E-1,7.698868E-1,1.2745785E0,-3.9816275E-1,1.0792226E0,-1.1771717E0,-4.146146E-1,1.2371604E0,-7.259924E-2,-0E0,2.546674E-1,1.1690884E0,1.0088574E0,-1.0650982E0,1.2587521E0,1.8215668E-1,-5.2619357E-2,1.2864897E0,5.7314867E-1,-8.178203E-1,-4.771919E-2,6.2162977E-2,-7.0134565E-2,3.959542E-2,4.465922E-2,-6.7454204E-2,6.2298167E-2,-4.3611582E-2,4.489925E-2,-2.475217E-2,-0E0,6.1313596E-2,6.1040904E-2,-6.787871E-3,1.4365459E-2,-5.539785E-2,-3.876609E-2,6.447164E-2,6.3799344E-2,-2.6677445E-2,6.478196E-2,-5.547473E-2,6.327995E-2,-1.0984825E-2,-0E0,-5.6089003E-2],"categories":[],"categories_nodes":[],"categories_segments":[],"categories_sizes":[],"default_left":[0,0,0,0,0,0,0,0,0,0,0,0,0,0,0,0,0,0,0,0,0,0,0,0,0,0,0,0,0,0,0,0,0,0,0,0,0,0,0,0,0,0,0,0,0,0,0,0,0,0,0,0,0,0,0,0,0],"id":16,"left_children":[1,3,5,7,9,11,13,15,17,19,21,23,25,27,29,31,33,35,37,-1,-1,39,41,43,45,47,49,-1,51,53,55,-1,-1,-1,-1,-1,-1,-1,-1,-1,-1,-1,-1,-1,-1,-1,-1,-1,-1,-1,-1,-1,-1,-1,-1,-1,-1],"loss_changes":[9.008391E3,3.3319238E2,4.119039E3,2.046211E2,1.8786087E2,3.024122E3,3.3865845E2,2.946173E2,8.734473E1,3.6590424E0,1.0306763E1,2.8759404E3,3.5245282E2,3.8619385E1,5.5684437E1,5.7789474E1,4.229059E1,4.2520573E1,8.621582E1,0E0,0E0,1.3761017E1,3.8269768E0,1.7775348E2,4.8506152E2,4.4451294E1,4.4308057E2,0E0,3.1164062E1,2.3999933E1,2.3670002E1,0E0,0E0,0E0,0E0,0E0,0E0,0E0,0E0,0E0,0E0,0E0,0E0,0E0,0E0,0E0,0E0,0E0,0E0,0E0,0E0,0E0,0E0,0E0,0E0,0E0,0E0],"parents":[2147483647,0,0,1,1,2,2,3,3,4,4,5,5,6,6,7,7,8,8,9,9,10,10,11,11,12,12,13,13,14,14,15,15,16,16,17,17,18,18,21,21,22,22,23,23,24,24,25,25,26,26,28,28,29,29,30,30],"right_children":[2,4,6,8,10,12,14,16,18,20,22,24,26,28,30,32,34,36,38,-1,-1,40,42,44,46,48,50,-1,52,54,56,-1,-1,-1,-1,-1,-1,-1,-1,-1,-1,-1,-1,-1,-1,-1,-1,-1,-1,-1,-1,-1,-1,-1,-1,-1,-1],"split_conditions":[-1.026237E0,1.0443931E0,3.6595026E-1,-6.279902E-1,8.453148E-2,4.2927903E-1,-4.281662E-1,-1.2239743E0,-1.1514919E0,-1.4838052E0,-6.79709E-1,-1.1876706E0,-5.251963E-1,-4.9970675E-1,2.4860783E0,2.362445E-1,4.4446054E-1,-2.2625291E0,1.3007723E0,-7.259924E-2,-0E0,-1.8245791E0,-5.438581E-1,-2.2625291E0,-6.564547E-1,-9.5978963E-1,-7.8405756E-1,-5.2619357E-2,6.0548633E-1,-2.8091606E-1,5.764296E-2,-4.771919E-2,6.2162977E-2,-7.0134565E-2,3.959542E-2,4.465922E-2,-6.7454204E-2,6.2298167E-2,-4.3611582E-2,4.489925E-2,-2.475217E-2,-0E0,6.1313596E-2,6.1040904E-2,-6.787871E-3,1.4365459E-2,-5.539785E-2,-3.876609E-2,6.447164E-2,6.3799344E-2,-2.6677445E-2,6.478196E-2,-5.547473E-2,6.327995E-2,-1.0984825E-2,-0E0,-5.6089003E-2],"split_indices":[119,35,114,199,50,82,184,126,77,117,150,93,182,82,100,90,80,105,29,0,0,162,74,105,0,109,117,0,63,0,181,0,0,0,0,0,0,0,0,0,0,0,0,0,0,0,0,0,0,0,0,0,0,0,0,0,0],"split_type":[0,0,0,0,0,0,0,0,0,0,0,0,0,0,0,0,0,0,0,0,0,0,0,0,0,0,0,0,0,0,0,0,0,0,0,0,0,0,0,0,0,0,0,0,0,0,0,0,0,0,0,0,0,0,0,0,0],"sum_hessian":[1.6639127E4,4.9247373E3,1.1714391E4,4.7844526E3,1.4028442E2,1.029748E4,1.41691E3,2.5011353E2,4.5343394E3,7.621784E1,6.406658E1,9.066183E3,1.2312981E3,1.2852008E3,1.317092E2,1.6325693E2,8.68566E1,3.0448051E1,4.503891E3,7.513697E1,1.0808764E0,2.3853071E1,4.021351E1,7.24823E2,8.341359E3,6.700092E2,5.612888E2,5.2279E0,1.2799729E3,3.8797256E1,9.291195E1,1.1011559E1,1.5224536E2,7.890295E1,7.9536524E0,1.22801285E1,1.8167923E1,4.486461E3,1.7430143E1,1.3342411E1,1.051066E1,1.3002397E0,3.891327E1,6.121965E2,1.12626526E2,2.5515742E2,8.086202E3,8.750187E0,6.6125903E2,2.2193372E2,3.3935513E2,1.2764346E3,3.5383444E0,2.0746517E1,1.8050737E1,2.5656849E1,6.72551E1],"tree_param":{"num_deleted":"0","num_feature":"200","num_nodes":"57","size_leaf_vector":"1"}},{"base_weights":[6.787174E-3,1.1179671E0,-4.6200773E-1,1.1618456E0,-4.1697323E-1,-6.730914E-1,1.1450208E0,1.1955562E0,-6.998222E-2,-1.3216319E0,7.417792E-1,-8.7010944E-1,7.186453E-1,1.2598175E0,-2.5975195E-1,1.2035667E0,-1.1344614E0,1.0331146E0,-1.0895982E0,2.4418442E-2,-1.3777472E0,2.4353234E-1,1.1524441E0,1.038683E0,-1.027102E0,1.22037E0,1.7025393E-1,-5.1796384E-2,1.2711118E0,-1.1859094E0,2.2064494E-1,2.8263677E-3,6.096342E-2,-7.721147E-2,2.441044E-2,-6.6126273E-3,5.649465E-2,1.9990614E-2,-6.338642E-2,-7.018793E-2,-0E0,4.220754E-2,-3.0578071E-2,-0E0,6.1641794E-2,5.9641253E-2,-1.11996215E-2,1.2594657E-2,-5.355949E-2,6.332535E-2,-6.688359E-2,-2.8437471E-2,6.0332384E-2,6.391925E-2,-1.431523E-2,-0E0,-6.8161026E-2,4.910814E-2,-3.4821E-2],"categories":[],"categories_nodes":[],"categories_segments":[],"categories_sizes":[],"default_left":[0,0,0,0,0,0,0,0,0,0,0,0,0,0,0,0,0,0,0,0,0,0,0,0,0,0,0,0,0,0,0,0,0,0,0,0,0,0,0,0,0,0,0,0,0,0,0,0,0,0,0,0,0,0,0,0,0,0,0],"id":17,"left_children":[1,3,5,7,9,11,13,15,17,19,21,23,25,27,29,31,33,35,37,-1,39,41,43,45,47,49,51,-1,53,55,57,-1,-1,-1,-1,-1,-1,-1,-1,-1,-1,-1,-1,-1,-1,-1,-1,-1,-1,-1,-1,-1,-1,-1,-1,-1,-1,-1,-1],"loss_changes":[8.437826E3,3.2542822E2,3.864906E3,1.953833E2,1.434472E2,2.7625166E3,2.1494543E2,8.7731445E1,1.4357597E2,1.0024231E1,1.02639885E1,2.64596E3,3.41901E2,3.4598267E1,4.6389538E1,8.028418E1,1.3330431E1,8.163399E0,1.9581673E1,0E0,3.0323944E0,1.6992517E1,3.908928E0,1.3210034E2,4.61125E2,8.015808E1,4.6164175E2,0E0,1.5532471E1,8.088898E0,4.8741367E1,0E0,0E0,0E0,0E0,0E0,0E0,0E0,0E0,0E0,0E0,0E0,0E0,0E0,0E0,0E0,0E0,0E0,0E0,0E0,0E0,0E0,0E0,0E0,0E0,0E0,0E0,0E0,0E0],"parents":[2147483647,0,0,1,1,2,2,3,3,4,4,5,5,6,6,7,7,8,8,9,9,10,10,11,11,12,12,13,13,14,14,15,15,16,16,17,17,18,18,20,20,21,21,22,22,23,23,24,24,25,25,26,26,28,28,29,29,30,30],"right_children":[2,4,6,8,10,12,14,16,18,20,22,24,26,28,30,32,34,36,38,-1,40,42,44,46,48,50,52,-1,54,56,58,-1,-1,-1,-1,-1,-1,-1,-1,-1,-1,-1,-1,-1,-1,-1,-1,-1,-1,-1,-1,-1,-1,-1,-1,-1,-1,-1,-1],"split_conditions":[-1.026237E0,1.1343383E0,3.781092E-1,7.222765E-1,4.9026452E-2,3.930012E-1,-1.6952306E-1,1.0413918E0,-1.4740047E0,-8.3599156E-1,-5.6338894E-1,-1.3611476E0,-4.9513018E-1,-3.247142E-1,-1.3935481E-1,-9.6223146E-1,4.7813892E-1,-2.068374E0,-1.0479385E-1,2.4418442E-2,6.1596017E0,-1.6138045E0,1.5011921E-2,-1.8798267E0,-6.564547E-1,-1.4015803E-1,8.2564044E-1,-5.1796384E-2,8.45134E-1,-8.336015E-1,2.694725E-1,2.8263677E-3,6.096342E-2,-7.721147E-2,2.441044E-2,-6.6126273E-3,5.649465E-2,1.9990614E-2,-6.338642E-2,-7.018793E-2,-0E0,4.220754E-2,-3.0578071E-2,-0E0,6.1641794E-2,5.9641253E-2,-1.11996215E-2,1.2594657E-2,-5.355949E-2,6.332535E-2,-6.688359E-2,-2.8437471E-2,6.0332384E-2,6.391925E-2,-1.431523E-2,-0E0,-6.8161026E-2,4.910814E-2,-3.4821E-2],"split_indices":[119,32,115,48,48,82,165,40,120,57,140,93,187,86,85,79,16,133,6,0,103,133,58,107,0,157,186,0,55,52,93,0,0,0,0,0,0,0,0,0,0,0,0,0,0,0,0,0,0,0,0,0,0,0,0,0,0,0,0],"split_type":[0,0,0,0,0,0,0,0,0,0,0,0,0,0,0,0,0,0,0,0,0,0,0,0,0,0,0,0,0,0,0,0,0,0,0,0,0,0,0,0,0,0,0,0,0,0,0,0,0,0,0,0,0,0,0,0,0,0,0],"sum_hessian":[1.619283E4,4.8043916E3,1.1388438E4,4.671974E3,1.3241754E2,1.00678125E4,1.3206256E3,4.5483726E3,1.23601234E2,7.468865E1,5.7728893E1,8.820611E3,1.2472017E3,1.2217072E3,9.891843E1,4.53418E3,1.4192365E1,5.8886345E1,6.471489E1,1.2467957E0,7.344186E1,2.862283E1,2.9106064E1,6.6899817E2,8.151613E3,6.4908124E2,5.981204E2,4.6593027E0,1.2170479E3,3.3492542E1,6.542589E1,6.2213623E1,4.471967E3,1.1900194E1,2.2921703E0,3.666754E0,5.5219593E1,6.0474105E0,5.8667477E1,7.2210785E1,1.2310772E0,1.75152E1,1.110763E1,1.3526506E0,2.7753414E1,5.970193E2,7.19789E1,2.7055847E2,7.8810547E3,6.3895764E2,1.0123581E1,3.491183E2,2.4900218E2,1.2123865E3,4.661427E0,4.2797365E0,2.9212805E1,3.626249E1,2.9163397E1],"tree_param":{"num_deleted":"0","num_feature":"200","num_nodes":"59","size_leaf_vector":"1"}},{"base_weights":[2.9269531E-3,1.0970837E0,-4.5342764E-1,1.1394092E0,-3.390887E-1,-7.605494E-1,6.2154484E-1,1.1723431E0,-1.3568352E-1,-1.2996536E0,8.326275E-1,-9.807314E-1,4.659418E-1,1.0822694E0,-4.3710046E-2,-4.1296372E-1,1.1830049E0,9.964963E-1,-1.0978945E0,2.3622112E-2,-6.868486E-2,-3.0484546E-3,1.0135376E0,-1.0127112E0,1.0440425E0,-4.56937E-1,7.671777E-1,-6.92013E-1,1.250884E0,1.2049447E0,-4.8961964E-1,4.6605475E-2,-6.503969E-2,5.9470356E-2,-4.3404922E-2,-1.4856674E-2,5.392775E-2,-6.525057E-2,2.6933542E-2,2.8673133E-2,-4.1136768E-2,-4.758481E-3,5.4532435E-2,-5.233116E-2,4.000023E-2,-3.8902037E-2,6.0128666E-2,3.8020294E-2,-4.2028513E-2,4.7711316E-2,-4.3695875E-2,-5.1371384E-2,1.7155867E-2,6.3117936E-2,-2.2084953E-2,6.622582E-2,-1.0765227E-2,3.5451185E-2,-4.7377955E-2],"categories":[],"categories_nodes":[],"categories_segments":[],"categories_sizes":[],"default_left":[0,0,0,0,0,0,0,0,0,0,0,0,0,0,0,0,0,0,0,0,0,0,0,0,0,0,0,0,0,0,0,0,0,0,0,0,0,0,0,0,0,0,0,0,0,0,0,0,0,0,0,0,0,0,0,0,0,0,0],"id":18,"left_children":[1,3,5,7,9,11,13,15,17,19,21,23,25,27,29,31,33,35,37,-1,-1,39,41,43,45,47,49,51,53,55,57,-1,-1,-1,-1,-1,-1,-1,-1,-1,-1,-1,-1,-1,-1,-1,-1,-1,-1,-1,-1,-1,-1,-1,-1,-1,-1,-1,-1],"loss_changes":[7.892363E3,2.8437744E2,3.6830308E3,1.9118115E2,1.535071E2,2.3443438E3,7.608262E2,7.624414E1,1.2739868E2,1.2028702E1,1.0259705E1,4.7844385E2,3.6828662E2,4.4068994E2,5.657285E2,3.89778E1,5.989258E1,7.083786E0,2.3699776E1,0E0,0E0,6.8118033E0,5.584442E0,4.4721973E2,3.5481255E1,1.5339119E2,3.0796735E2,4.5812244E1,2.7949951E1,4.70448E1,4.1331085E2,0E0,0E0,0E0,0E0,0E0,0E0,0E0,0E0,0E0,0E0,0E0,0E0,0E0,0E0,0E0,0E0,0E0,0E0,0E0,0E0,0E0,0E0,0E0,0E0,0E0,0E0,0E0,0E0],"parents":[2147483647,0,0,1,1,2,2,3,3,4,4,5,5,6,6,7,7,8,8,9,9,10,10,11,11,12,12,13,13,14,14,15,15,16,16,17,17,18,18,21,21,22,22,23,23,24,24,25,25,26,26,27,27,28,28,29,29,30,30],"right_children":[2,4,6,8,10,12,14,16,18,20,22,24,26,28,30,32,34,36,38,-1,-1,40,42,44,46,48,50,52,54,56,58,-1,-1,-1,-1,-1,-1,-1,-1,-1,-1,-1,-1,-1,-1,-1,-1,-1,-1,-1,-1,-1,-1,-1,-1,-1,-1,-1,-1],"split_conditions":[-1.026237E0,1.0814973E0,2.0269163E-1,7.188362E-1,7.9630874E-2,-8.7249674E-2,-5.903693E-1,-1.211104E0,-1.509443E0,-1.8851384E0,-8.7828845E-2,3.8524407E-1,-2.6770225E-1,7.935578E-1,-9.156442E-1,-3.1646078E0,1.3007723E0,-2.500282E0,4.0737966E-1,2.3622112E-2,-6.868486E-2,1.2986876E0,-3.5859964E0,5.4673445E-1,-3.3756573E-2,-1.3672888E0,5.2685916E-2,5.247826E-1,6.67962E-1,4.016713E0,-1.4249896E-1,4.6605475E-2,-6.503969E-2,5.9470356E-2,-4.3404922E-2,-1.4856674E-2,5.392775E-2,-6.525057E-2,2.6933542E-2,2.8673133E-2,-4.1136768E-2,-4.758481E-3,5.4532435E-2,-5.233116E-2,4.000023E-2,-3.8902037E-2,6.0128666E-2,3.8020294E-2,-4.2028513E-2,4.7711316E-2,-4.3695875E-2,-5.1371384E-2,1.7155867E-2,6.3117936E-2,-2.2084953E-2,6.622582E-2,-1.0765227E-2,3.5451185E-2,-4.7377955E-2],"split_indices":[119,34,85,49,50,123,180,81,123,125,70,78,78,108,116,108,29,129,182,0,0,36,120,17,51,104,66,81,60,104,94,0,0,0,0,0,0,0,0,0,0,0,0,0,0,0,0,0,0,0,0,0,0,0,0,0,0,0,0],"split_type":[0,0,0,0,0,0,0,0,0,0,0,0,0,0,0,0,0,0,0,0,0,0,0,0,0,0,0,0,0,0,0,0,0,0,0,0,0,0,0,0,0,0,0,0,0,0,0,0,0,0,0,0,0,0,0,0,0,0,0],"sum_hessian":[1.5800831E4,4.6504014E3,1.1150429E4,4.5183506E3,1.3205113E2,8.673817E3,2.4766118E3,4.405508E3,1.1284272E2,7.291279E1,5.913834E1,7.3547036E3,1.319114E3,1.4633872E3,1.0132244E3,2.8300005E1,4.3772075E3,5.1332317E1,6.1510403E1,1.9510536E0,7.096174E1,9.890409E0,4.924793E1,7.241818E3,1.12885574E2,3.235425E2,9.9557153E2,1.2594683E2,1.3374404E3,2.6513507E2,7.480894E2,1.0764925E1,1.753508E1,4.364911E3,1.2296754E1,2.0223427E0,4.9309975E1,5.550247E1,6.0079365E0,5.4429865E0,4.4474225E0,2.328721E0,4.691921E1,7.110198E3,1.3161969E2,7.9050326E0,1.04980545E2,7.643346E1,2.4710905E2,8.950069E2,1.00564606E2,9.5864624E1,3.0082203E1,1.3295264E3,7.9141073E0,2.4532033E2,1.9814745E1,2.058922E2,5.421972E2],"tree_param":{"num_deleted":"0","num_feature":"200","num_nodes":"59","size_leaf_vector":"1"}},{"base_weights":[4.298284E-3,9.861647E-1,-4.8108286E-1,5.32183E-2,1.1075734E0,-7.011047E-1,1.1099557E0,1.0810571E0,-9.193714E-1,1.1370401E0,-1.8810265E-1,7.599708E-1,-8.6306256E-1,1.2285721E0,-3.0063075E-1,-1.1119599E0,1.1781749E0,-1.1702317E0,9.5868695E-1,1.1985458E0,6.542694E-1,-1.3695738E0,8.518652E-1,-7.078778E-1,1.1260319E0,-9.971485E-1,7.280686E-1,-8.1430125E-1,1.2430165E0,-1.0543216E0,7.793707E-2,7.708246E-4,-7.2376035E-2,-0E0,6.0160425E-2,-6.40808E-2,1.6482987E-2,-3.611914E-2,5.5496167E-2,-5.6136597E-2,6.0234006E-2,-3.5235148E-2,5.060739E-2,-0E0,-7.035443E-2,-3.417742E-2,5.2482933E-2,4.3149266E-2,-6.457923E-2,6.766516E-2,-5.436142E-2,-5.1939618E-2,2.7424404E-2,-2.7410224E-2,5.8861356E-2,-5.2479696E-2,-0E0,6.2448032E-2,-1.1050487E-2,9.227088E-4,-6.1804753E-2,4.951342E-2,-3.0209988E-2],"categories":[],"categories_nodes":[],"categories_segments":[],"categories_sizes":[],"default_left":[0,0,0,0,0,0,0,0,0,0,0,0,0,0,0,0,0,0,0,0,0,0,0,0,0,0,0,0,0,0,0,0,0,0,0,0,0,0,0,0,0,0,0,0,0,0,0,0,0,0,0,0,0,0,0,0,0,0,0,0,0,0,0],"id":19,"left_children":[1,3,5,7,9,11,13,15,17,19,21,23,25,27,29,31,33,35,37,39,41,43,45,47,49,51,53,55,57,59,61,-1,-1,-1,-1,-1,-1,-1,-1,-1,-1,-1,-1,-1,-1,-1,-1,-1,-1,-1,-1,-1,-1,-1,-1,-1,-1,-1,-1,-1,-1,-1,-1],"loss_changes":[7.291284E3,5.7202246E2,3.5846338E3,5.878294E2,1.7232812E2,2.1298853E3,2.0978687E2,6.36557E1,1.4455267E2,1.2660693E2,1.2636901E2,4.845362E2,1.7295889E3,3.63407E1,2.8941349E1,6.2932825E0,7.4375E0,4.6476532E1,1.1186859E1,5.8035156E1,2.4543983E2,3.0346603E0,1.8276123E1,1.6764252E2,3.654179E2,4.824961E2,3.6308124E2,2.5662732E0,1.1514893E1,7.814987E0,4.2555603E1,0E0,0E0,0E0,0E0,0E0,0E0,0E0,0E0,0E0,0E0,0E0,0E0,0E0,0E0,0E0,0E0,0E0,0E0,0E0,0E0,0E0,0E0,0E0,0E0,0E0,0E0,0E0,0E0,0E0,0E0,0E0,0E0],"parents":[2147483647,0,0,1,1,2,2,3,3,4,4,5,5,6,6,7,7,8,8,9,9,10,10,11,11,12,12,13,13,14,14,15,15,16,16,17,17,18,18,19,19,20,20,21,21,22,22,23,23,24,24,25,25,26,26,27,27,28,28,29,29,30,30],"right_children":[2,4,6,8,10,12,14,16,18,20,22,24,26,28,30,32,34,36,38,40,42,44,46,48,50,52,54,56,58,60,62,-1,-1,-1,-1,-1,-1,-1,-1,-1,-1,-1,-1,-1,-1,-1,-1,-1,-1,-1,-1,-1,-1,-1,-1,-1,-1,-1,-1,-1,-1,-1,-1],"split_conditions":[-8.98988E-1,-8.4023374E-1,3.781092E-1,-1.2374104E0,1.0443931E0,-8.971111E-1,-1.6952306E-1,-2.866083E-1,6.3746464E-1,-1.1820252E0,1.1849853E-1,-4.050627E-1,5.9473467E-1,-2.7470544E-1,-1.3935481E-1,-3.5404372E0,2.495693E-1,-1.6562901E-1,3.0674381E-2,-1.1505133E0,-3.3334428E-1,-1.2764354E0,-7.603065E-1,-8.494447E-1,8.7372446E-1,4.2870945E-1,1.2855309E0,7.202764E-1,1.2270193E0,-8.336015E-1,-6.496574E-2,7.708246E-4,-7.2376035E-2,-0E0,6.0160425E-2,-6.40808E-2,1.6482987E-2,-3.611914E-2,5.5496167E-2,-5.6136597E-2,6.0234006E-2,-3.5235148E-2,5.060739E-2,-0E0,-7.035443E-2,-3.417742E-2,5.2482933E-2,4.3149266E-2,-6.457923E-2,6.766516E-2,-5.436142E-2,-5.1939618E-2,2.7424404E-2,-2.7410224E-2,5.8861356E-2,-5.2479696E-2,-0E0,6.2448032E-2,-1.1050487E-2,9.227088E-4,-6.1804753E-2,4.951342E-2,-3.0209988E-2],"split_indices":[118,176,115,127,35,95,165,83,82,118,51,71,82,86,85,112,89,199,107,199,80,139,159,89,21,18,107,25,51,52,92,0,0,0,0,0,0,0,0,0,0,0,0,0,0,0,0,0,0,0,0,0,0,0,0,0,0,0,0,0,0,0,0],"split_type":[0,0,0,0,0,0,0,0,0,0,0,0,0,0,0,0,0,0,0,0,0,0,0,0,0,0,0,0,0,0,0,0,0,0,0,0,0,0,0,0,0,0,0,0,0,0,0,0,0,0,0,0,0,0,0,0,0,0,0,0,0,0,0],"sum_hessian":[1.5294149E4,5.0594663E3,1.0234683E4,5.83876E2,4.4755903E3,8.992828E3,1.2418547E3,2.842665E2,2.9960944E2,4.3770625E3,9.852796E1,8.960156E2,8.096812E3,1.1464192E3,9.543558E1,1.073197E1,2.7353455E2,2.6543976E2,3.4169674E1,3.8779678E3,4.990949E2,4.6279324E1,5.224864E1,1.7793289E2,7.1808276E2,7.4687866E3,6.280257E2,6.785345E0,1.1396338E3,3.1598194E1,6.3837383E1,2.2157593E0,8.516211E0,6.208671E0,2.6732587E2,2.4798203E2,1.7457737E1,1.6511458E0,3.2518528E1,8.8318405E0,3.8691357E3,1.0305008E2,3.9604483E2,1.0073203E0,4.5272003E1,4.8251204E0,4.742352E1,4.7481438E1,1.3045146E2,6.523267E2,6.5756035E1,7.2741045E3,1.9468222E2,1.6279114E2,4.6523456E2,5.6174245E0,1.1679204E0,1.1359984E3,3.6354125E0,4.041573E0,2.755662E1,2.7551235E1,3.6286148E1],"tree_param":{"num_deleted":"0","num_feature":"200","num_nodes":"63","size_leaf_vector":"1"}},{"base_weights":[2.67734E-3,1.0136507E0,-4.4992736E-1,1.380752E-1,1.1223532E0,-6.6151154E-1,1.0539695E0,1.0272812E0,-1.009098E0,1.1501615E0,-1.0567222E-1,-8.2500297E-1,6.6178095E-1,1.212354E0,-3.551429E-1,-1.1336695E0,1.133904E0,-1.1745473E0,1.0419987E0,4.4114146E-2,1.1709883E0,-1.3585821E0,9.0194017E-1,6.5795064E-1,-1.0036278E0,-2.329754E-1,1.0965296E0,-5.2284192E-2,1.2266312E0,6.2591493E-1,-8.0649966E-1,2.628756E-2,-7.457151E-2,1.0484989E-2,5.9239537E-2,-6.1394222E-2,3.2902915E-2,-0E0,5.5402227E-2,-7.272641E-2,3.65786E-2,-6.5738946E-2,5.8923848E-2,-7.017002E-2,-0E0,-4.2413242E-2,5.2041467E-2,-1.789456E-2,5.4021675E-2,-5.146618E-2,5.4334622E-2,4.4296715E-2,-4.0581957E-2,5.8176E-2,-9.117584E-3,6.1745554E-2,-4.0428597E-2,4.9449574E-2,-3.910765E-2,-1.4537806E-2,-6.253452E-2],"categories":[],"categories_nodes":[],"categories_segments":[],"categories_sizes":[],"default_left":[0,0,0,0,0,0,0,0,0,0,0,0,0,0,0,0,0,0,0,0,0,0,0,0,0,0,0,0,0,0,0,0,0,0,0,0,0,0,0,0,0,0,0,0,0,0,0,0,0,0,0,0,0,0,0,0,0,0,0,0,0],"id":20,"left_children":[1,3,5,7,9,11,13,15,17,19,21,23,25,27,29,31,33,35,37,39,41,43,45,47,49,51,53,-1,55,57,59,-1,-1,-1,-1,-1,-1,-1,-1,-1,-1,-1,-1,-1,-1,-1,-1,-1,-1,-1,-1,-1,-1,-1,-1,-1,-1,-1,-1,-1,-1],"loss_changes":[6.797002E3,4.3567236E2,3.2655203E3,5.229934E2,1.4079932E2,1.9474585E3,2.8416614E2,6.919388E1,7.842531E1,9.072754E1,1.1841902E2,2.1229536E3,3.86338E2,3.9458252E1,5.821661E1,1.0937553E1,1.1135712E1,2.2537292E1,2.7534676E-1,8.0545906E1,7.595166E1,3.0788193E0,1.4470692E1,3.7123203E2,3.861504E2,2.1147484E2,5.8560303E1,0E0,2.151538E1,2.2718718E1,1.8297886E1,0E0,0E0,0E0,0E0,0E0,0E0,0E0,0E0,0E0,0E0,0E0,0E0,0E0,0E0,0E0,0E0,0E0,0E0,0E0,0E0,0E0,0E0,0E0,0E0,0E0,0E0,0E0,0E0,0E0,0E0],"parents":[2147483647,0,0,1,1,2,2,3,3,4,4,5,5,6,6,7,7,8,8,9,9,10,10,11,11,12,12,13,13,14,14,15,15,16,16,17,17,18,18,19,19,20,20,21,21,22,22,23,23,24,24,25,25,26,26,28,28,29,29,30,30],"right_children":[2,4,6,8,10,12,14,16,18,20,22,24,26,28,30,32,34,36,38,40,42,44,46,48,50,52,54,-1,56,58,60,-1,-1,-1,-1,-1,-1,-1,-1,-1,-1,-1,-1,-1,-1,-1,-1,-1,-1,-1,-1,-1,-1,-1,-1,-1,-1,-1,-1,-1,-1],"split_conditions":[-9.899794E-1,-8.3820415E-1,3.6595026E-1,-1.189778E0,1.0443931E0,4.6734712E-1,-4.281662E-1,-2.769432E-1,4.773974E-1,-8.844414E-1,2.0395765E-1,-3.8681296E-1,-5.8538713E-2,-4.3328092E-1,2.4860783E0,-5.2699995E0,4.6689284E-1,8.2788396E-1,1.022791E0,9.922614E-1,-1.1267282E0,3.445633E0,-9.136229E-1,-3.9540654E-1,6.6169953E-1,-7.2210884E-1,1.1585495E0,-5.2284192E-2,4.671077E-1,3.7839475E-1,3.396293E-1,2.628756E-2,-7.457151E-2,1.0484989E-2,5.9239537E-2,-6.1394222E-2,3.2902915E-2,-0E0,5.5402227E-2,-7.272641E-2,3.65786E-2,-6.5738946E-2,5.8923848E-2,-7.017002E-2,-0E0,-4.2413242E-2,5.2041467E-2,-1.789456E-2,5.4021675E-2,-5.146618E-2,5.4334622E-2,4.4296715E-2,-4.0581957E-2,5.8176E-2,-9.117584E-3,6.1745554E-2,-4.0428597E-2,4.9449574E-2,-3.910765E-2,-1.4537806E-2,-6.253452E-2],"split_indices":[118,173,114,127,35,82,184,83,80,72,49,94,53,85,100,97,86,12,84,185,198,106,148,73,31,118,21,0,153,28,183,0,0,0,0,0,0,0,0,0,0,0,0,0,0,0,0,0,0,0,0,0,0,0,0,0,0,0,0,0,0],"split_type":[0,0,0,0,0,0,0,0,0,0,0,0,0,0,0,0,0,0,0,0,0,0,0,0,0,0,0,0,0,0,0,0,0,0,0,0,0,0,0,0,0,0,0,0,0,0,0,0,0,0,0,0,0,0,0,0,0,0,0,0,0],"sum_hessian":[1.4849295E4,4.5919917E3,1.0257303E4,5.0865155E2,4.0833403E3,8.993752E3,1.2635513E3,2.8715244E2,2.2149911E2,3.993842E3,8.94982E1,8.0061133E3,9.876384E2,1.1367673E3,1.267839E2,1.2155258E1,2.749972E2,2.0620786E2,1.5291258E1,7.481671E1,3.9190254E3,4.0025066E1,4.9473133E1,8.5950287E2,7.1466104E3,3.2250955E2,6.6512885E2,5.7945623E0,1.1309728E3,3.900802E1,8.777589E1,1.4935163E0,1.0661741E1,1.59112015E1,2.5908597E2,2.0154755E2,4.660306E0,1.7756176E0,1.351564E1,2.236823E1,5.2448483E1,1.0321207E1,3.908704E3,3.8946964E1,1.0781022E0,2.3569667E0,4.7116165E1,2.5185857E2,6.076443E2,7.061301E3,8.530959E1,1.08985E2,2.1352455E2,6.329367E2,3.2192146E1,1.1276628E3,3.3099039E0,3.2049385E1,6.9586325E0,4.3189545E1,4.4586338E1],"tree_param":{"num_deleted":"0","num_feature":"200","num_nodes":"61","size_leaf_vector":"1"}},{"base_weights":[6.910377E-3,9.5727533E-1,-4.5643467E-1,4.1694645E-2,1.0733473E0,-6.6341245E-1,1.0755895E0,1.0400579E0,-9.3273425E-1,2.2861996E-1,1.117828E0,6.6065973E-1,-8.3119965E-1,1.1976621E0,-2.7526006E-1,-9.212288E-1,1.1484153E0,-1.1732244E0,6.431469E-1,-4.9367416E-1,9.841727E-1,6.838165E-2,1.1374217E0,-4.0829298E-1,1.0179919E0,-9.592104E-1,8.154438E-1,-6.732092E-1,1.2099787E0,-1.0624979E0,2.4166784E-1,1.1947515E-2,-6.913959E-2,-0E0,5.8697224E-2,-6.152283E-2,2.1105776E-2,-2.4805255E-2,5.288882E-2,2.8418899E-2,-5.1658656E-2,-6.936613E-2,5.4224502E-2,4.3619104E-2,-6.4039305E-2,-3.7292965E-2,5.725179E-2,2.9701743E-2,-5.150193E-2,6.0003754E-2,-4.6992414E-2,8.4494136E-2,-4.9223572E-2,-1.7485086E-2,5.692163E-2,-4.57048E-2,-0E0,6.0887497E-2,-6.7102695E-3,-0E0,-5.8654744E-2,5.094247E-2,-2.1582983E-2],"categories":[],"categories_nodes":[],"categories_segments":[],"categories_sizes":[],"default_left":[0,0,0,0,0,0,0,0,0,0,0,0,0,0,0,0,0,0,0,0,0,0,0,0,0,0,0,0,0,0,0,0,0,0,0,0,0,0,0,0,0,0,0,0,0,0,0,0,0,0,0,0,0,0,0,0,0,0,0,0,0,0,0],"id":21,"left_children":[1,3,5,7,9,11,13,15,17,19,21,23,25,27,29,31,33,35,37,39,41,43,45,47,49,51,53,55,57,59,61,-1,-1,-1,-1,-1,-1,-1,-1,-1,-1,-1,-1,-1,-1,-1,-1,-1,-1,-1,-1,-1,-1,-1,-1,-1,-1,-1,-1,-1,-1,-1,-1],"loss_changes":[6.3582446E3,5.0176416E2,3.0785059E3,5.230384E2,1.559253E2,1.9011892E3,1.9209583E2,5.8867767E1,1.0495824E2,1.18083336E2,8.063281E1,3.6899988E2,1.6019443E3,2.6605225E1,4.0685005E1,9.597098E0,8.209686E0,2.3474426E1,1.894568E1,6.461408E1,2.7873596E1,8.4426506E1,5.8223633E1,1.5235211E2,2.6006604E2,4.7410107E2,2.0786093E2,2.0486407E0,1.2430176E1,5.5838623E0,3.2463024E1,0E0,0E0,0E0,0E0,0E0,0E0,0E0,0E0,0E0,0E0,0E0,0E0,0E0,0E0,0E0,0E0,0E0,0E0,0E0,0E0,0E0,0E0,0E0,0E0,0E0,0E0,0E0,0E0,0E0,0E0,0E0,0E0],"parents":[2147483647,0,0,1,1,2,2,3,3,4,4,5,5,6,6,7,7,8,8,9,9,10,10,11,11,12,12,13,13,14,14,15,15,16,16,17,17,18,18,19,19,20,20,21,21,22,22,23,23,24,24,25,25,26,26,27,27,28,28,29,29,30,30],"right_children":[2,4,6,8,10,12,14,16,18,20,22,24,26,28,30,32,34,36,38,40,42,44,46,48,50,52,54,56,58,60,62,-1,-1,-1,-1,-1,-1,-1,-1,-1,-1,-1,-1,-1,-1,-1,-1,-1,-1,-1,-1,-1,-1,-1,-1,-1,-1,-1,-1,-1,-1,-1,-1],"split_conditions":[-8.98988E-1,-8.520447E-1,3.781092E-1,-1.2374104E0,-7.7424186E-1,-3.8681296E-1,-2.1890517E-1,-2.866083E-1,4.404082E-1,5.154305E-1,-8.844414E-1,-3.9540654E-1,6.087654E-1,-3.7127686E-1,8.037118E-3,-3.5404372E0,1.579416E-1,7.076717E-1,-1.1482472E0,-1.4546027E0,-2.6256995E0,-1.4114501E0,-1.0096061E0,-8.098636E-1,8.7372446E-1,-1.4461482E0,1.6214283E-1,8.3520335E-1,8.45134E-1,-1.7067381E0,-6.496574E-2,1.1947515E-2,-6.913959E-2,-0E0,5.8697224E-2,-6.152283E-2,2.1105776E-2,-2.4805255E-2,5.288882E-2,2.8418899E-2,-5.1658656E-2,-6.936613E-2,5.4224502E-2,4.3619104E-2,-6.4039305E-2,-3.7292965E-2,5.725179E-2,2.9701743E-2,-5.150193E-2,6.0003754E-2,-4.6992414E-2,8.4494136E-2,-4.9223572E-2,-1.7485086E-2,5.692163E-2,-4.57048E-2,-0E0,6.0887497E-2,-6.7102695E-3,-0E0,-5.8654744E-2,5.094247E-2,-2.1582983E-2],"split_indices":[118,176,115,127,152,94,162,83,109,83,72,73,81,85,85,112,90,81,118,122,99,118,199,90,21,177,108,188,55,96,92,0,0,0,0,0,0,0,0,0,0,0,0,0,0,0,0,0,0,0,0,0,0,0,0,0,0,0,0,0,0,0,0],"split_type":[0,0,0,0,0,0,0,0,0,0,0,0,0,0,0,0,0,0,0,0,0,0,0,0,0,0,0,0,0,0,0,0,0,0,0,0,0,0,0,0,0,0,0,0,0,0,0,0,0,0,0,0,0,0,0,0,0,0,0,0,0,0,0],"sum_hessian":[1.4434051E4,4.7307847E3,9.703266E3,5.3353937E2,4.1972456E3,8.549947E3,1.1533186E3,2.6397354E2,2.6956583E2,2.1169698E2,3.9855486E3,9.602686E2,7.5896787E3,1.058621E3,9.469762E1,1.255179E1,2.5142174E2,2.3486885E2,3.469699E1,1.07908325E2,1.0378864E2,7.41481E1,3.9114004E3,2.398069E2,7.2046173E2,7.043552E3,5.461265E2,5.6907444E0,1.0529303E3,3.7465103E1,5.7232517E1,3.2302716E0,9.321519E0,4.9451427E0,2.464766E2,2.2778152E2,7.0873156E0,8.509947E0,2.6187044E1,3.5689568E1,7.221876E1,2.766308E0,1.0102234E2,4.7368244E1,2.6779856E1,1.4440411E1,3.89696E3,9.12239E1,1.4858301E2,6.6033417E2,6.012756E1,6.49121E1,6.9786396E3,1.1782495E2,4.2830154E2,4.623213E0,1.0675318E0,1.0478046E3,5.1257715E0,3.0330086E0,3.4432095E1,2.6780378E1,3.0452137E1],"tree_param":{"num_deleted":"0","num_feature":"200","num_nodes":"63","size_leaf_vector":"1"}},{"base_weights":[3.3891173E-3,1.046882E0,-4.0944582E-1,1.0944744E0,-4.331543E-1,-7.2004837E-1,4.9867836E-1,3.41336E-1,1.1377953E0,-1.214621E0,7.1557057E-1,9.4858384E-1,-8.523372E-1,9.4736284E-1,-1.5515284E-1,9.8426604E-1,-1.2565796E0,-1.9452892E-1,1.1505868E0,3.440666E-2,-6.649341E-2,2.8205377E-1,5.655498E-2,1.1760145E0,-2.2746791E-1,-9.022994E-1,1.1633974E0,-5.424824E-1,1.1881024E0,1.0773505E0,-5.248276E-1,-3.565772E-2,5.767404E-2,-6.884992E-2,2.6056929E-2,-6.846878E-2,4.0460303E-2,5.780306E-2,-4.5477163E-2,3.207482E-2,-1.03450725E-2,6.068973E-2,-2.5583992E-2,5.7194628E-2,-4.6002433E-2,-4.8215546E-2,3.3776145E-2,-1.9667435E-2,6.036256E-2,3.2714806E-2,-5.2256573E-2,6.0093608E-2,-4.5135304E-2,-5.1755417E-2,6.0625024E-2,2.687724E-2,-4.9511056E-2],"categories":[],"categories_nodes":[],"categories_segments":[],"categories_sizes":[],"default_left":[0,0,0,0,0,0,0,0,0,0,0,0,0,0,0,0,0,0,0,0,0,0,0,0,0,0,0,0,0,0,0,0,0,0,0,0,0,0,0,0,0,0,0,0,0,0,0,0,0,0,0,0,0,0,0,0,0],"id":22,"left_children":[1,3,5,7,9,11,13,15,17,19,21,23,25,27,29,31,33,35,37,-1,-1,39,-1,41,43,45,47,49,51,53,55,-1,-1,-1,-1,-1,-1,-1,-1,-1,-1,-1,-1,-1,-1,-1,-1,-1,-1,-1,-1,-1,-1,-1,-1,-1,-1],"loss_changes":[6.015907E3,2.8047314E2,2.8228315E3,1.2292676E2,1.1365648E2,1.6474387E3,7.491817E2,2.2082716E2,6.3200684E1,1.894622E1,7.1343E0,1.4808524E2,6.97771E2,5.447611E2,4.737884E2,4.6122513E1,1.5454117E1,4.457952E1,4.286621E1,0E0,0E0,5.7612815E0,0E0,3.129486E1,8.7154205E1,6.615132E2,1.3200394E1,1.28887E2,4.0015015E1,7.111261E1,3.9751212E2,0E0,0E0,0E0,0E0,0E0,0E0,0E0,0E0,0E0,0E0,0E0,0E0,0E0,0E0,0E0,0E0,0E0,0E0,0E0,0E0,0E0,0E0,0E0,0E0,0E0,0E0],"parents":[2147483647,0,0,1,1,2,2,3,3,4,4,5,5,6,6,7,7,8,8,9,9,10,10,11,11,12,12,13,13,14,14,15,15,16,16,17,17,18,18,21,21,23,23,24,24,25,25,26,26,27,27,28,28,29,29,30,30],"right_children":[2,4,6,8,10,12,14,16,18,20,22,24,26,28,30,32,34,36,38,-1,-1,40,-1,42,44,46,48,50,52,54,56,-1,-1,-1,-1,-1,-1,-1,-1,-1,-1,-1,-1,-1,-1,-1,-1,-1,-1,-1,-1,-1,-1,-1,-1,-1,-1],"split_conditions":[-1.0564786E0,1.0814973E0,1.8908592E-1,-6.705029E-1,1.1378683E-1,-1.2969817E0,-5.3702664E-1,-1.2021761E0,-1.0041122E0,-1.5517844E0,-1.1216682E-1,-8.606261E-1,7.076717E-1,-9.377493E-2,-1.0130637E0,4.137206E-1,4.9167257E-2,-5.876864E-1,1.3143109E0,3.440666E-2,-6.649341E-2,1.2665315E0,5.655498E-2,-1.6042827E0,-5.757204E-1,1.7993659E-1,7.397431E-2,1.4513372E-1,-3.9461088E-1,-1.16835944E-1,1.407408E-1,-3.565772E-2,5.767404E-2,-6.884992E-2,2.6056929E-2,-6.846878E-2,4.0460303E-2,5.780306E-2,-4.5477163E-2,3.207482E-2,-1.03450725E-2,6.068973E-2,-2.5583992E-2,5.7194628E-2,-4.6002433E-2,-4.8215546E-2,3.3776145E-2,-1.9667435E-2,6.036256E-2,3.2714806E-2,-5.2256573E-2,6.0093608E-2,-4.5135304E-2,-5.1755417E-2,6.0625024E-2,2.687724E-2,-4.9511056E-2],"split_indices":[119,34,86,197,51,92,177,125,82,127,148,113,81,110,116,90,111,139,30,0,0,44,0,105,64,118,91,45,165,83,94,0,0,0,0,0,0,0,0,0,0,0,0,0,0,0,0,0,0,0,0,0,0,0,0,0,0],"split_type":[0,0,0,0,0,0,0,0,0,0,0,0,0,0,0,0,0,0,0,0,0,0,0,0,0,0,0,0,0,0,0,0,0,0,0,0,0,0,0,0,0,0,0,0,0,0,0,0,0,0,0,0,0,0,0,0,0],"sum_hessian":[1.3959345E4,3.956964E3,1.000238E4,3.8348464E3,1.22117584E2,7.4543203E3,2.5480598E3,2.1080605E2,3.6240405E3,7.312628E1,4.899131E1,5.4610425E2,6.9082163E3,1.5114651E3,1.0365947E3,1.513168E2,5.9489254E1,3.344938E1,3.590591E3,3.112894E0,7.001338E1,2.6797699E1,2.219361E1,4.58322E2,8.778223E1,6.742692E3,1.6552432E2,2.0933151E2,1.3021335E3,2.3766867E2,7.989261E2,1.2598688E1,1.3871811E2,5.6664284E1,2.8249695E0,1.5534434E1,1.7914946E1,3.5824346E3,8.156475E0,1.6263353E1,1.0534347E1,4.494157E2,8.9063E0,2.853456E1,5.9247665E1,6.4890703E3,2.5362173E2,3.4736147E0,1.620507E2,6.114824E1,1.4818327E2,1.2949338E3,7.1996465E0,1.3045415E1,2.2462326E2,2.4262274E2,5.5630334E2],"tree_param":{"num_deleted":"0","num_feature":"200","num_nodes":"57","size_leaf_vector":"1"}},{"base_weights":[-3.789233E-3,1.0349919E0,-4.092425E-1,1.0775312E0,-4.2338052E-1,-7.162563E-1,4.8932436E-1,2.741744E-1,1.1164194E0,-1.2301761E0,6.3239634E-1,9.1954315E-1,-8.4523493E-1,-3.9350417E-2,1.0231526E0,1.0315326E0,-1.0537384E0,1.13034E0,-5.35012E-1,-0E0,-6.475885E-2,-3.488071E-2,7.25807E-1,1.0404046E0,-1.1374055E0,-8.934559E-1,1.1307312E0,9.3709415E-1,-3.773156E-1,1.2049855E0,-9.7546226E-1,-2.2741904E-2,5.788135E-2,-6.2489845E-2,2.7896766E-2,-5.1038708E-3,5.71527E-2,-8.05487E-2,3.100138E-2,-1.6857162E-2,2.5371766E-2,-1.5747039E-2,4.1223805E-2,5.8535855E-2,-6.1471416E-3,3.9573055E-2,-8.128371E-2,-4.7781482E-2,3.2838475E-2,-1.9528283E-2,5.9761327E-2,-0E0,5.7910234E-2,4.1470982E-2,-2.8586796E-2,6.0698595E-2,-6.2486526E-2,1.7832948E-2,-5.458006E-2],"categories":[],"categories_nodes":[],"categories_segments":[],"categories_sizes":[],"default_left":[0,0,0,0,0,0,0,0,0,0,0,0,0,0,0,0,0,0,0,0,0,0,0,0,0,0,0,0,0,0,0,0,0,0,0,0,0,0,0,0,0,0,0,0,0,0,0,0,0,0,0,0,0,0,0,0,0,0,0],"id":23,"left_children":[1,3,5,7,9,11,13,15,17,19,21,23,25,27,29,31,33,35,37,39,-1,-1,41,43,45,47,49,51,53,55,57,-1,-1,-1,-1,-1,-1,-1,-1,-1,-1,-1,-1,-1,-1,-1,-1,-1,-1,-1,-1,-1,-1,-1,-1,-1,-1,-1,-1],"loss_changes":[5.7014307E3,2.3731543E2,2.6874573E3,1.1338916E2,9.454977E1,1.5332144E3,7.01064E2,1.7752597E2,8.275391E1,5.690796E0,6.9756756E0,1.3427597E2,6.431333E2,4.1171548E2,4.514547E2,2.2847672E1,2.2259827E1,5.600586E1,4.050892E1,1.2426349E0,0E0,0E0,5.785223E0,7.759314E1,3.1628067E1,6.3501025E2,1.7509293E1,6.6593506E1,2.1857027E2,2.8002563E1,1.754934E1,0E0,0E0,0E0,0E0,0E0,0E0,0E0,0E0,0E0,0E0,0E0,0E0,0E0,0E0,0E0,0E0,0E0,0E0,0E0,0E0,0E0,0E0,0E0,0E0,0E0,0E0,0E0,0E0],"parents":[2147483647,0,0,1,1,2,2,3,3,4,4,5,5,6,6,7,7,8,8,9,9,10,10,11,11,12,12,13,13,14,14,15,15,16,16,17,17,18,18,19,19,22,22,23,23,24,24,25,25,26,26,27,27,28,28,29,29,30,30],"right_children":[2,4,6,8,10,12,14,16,18,20,22,24,26,28,30,32,34,36,38,40,-1,-1,42,44,46,48,50,52,54,56,58,-1,-1,-1,-1,-1,-1,-1,-1,-1,-1,-1,-1,-1,-1,-1,-1,-1,-1,-1,-1,-1,-1,-1,-1,-1,-1,-1,-1],"split_conditions":[-1.0564786E0,1.1413313E0,1.8908592E-1,-6.737704E-1,7.3185146E-2,-1.2969817E0,7.989219E-1,-1.2731682E0,1.0413918E0,-5.047042E-1,-3.5859964E0,9.138303E-1,7.076717E-1,-9.156442E-1,-2.6711556E-1,1.579416E-1,8.485059E-1,-1.0041122E0,1.495775E-1,3.6999834E0,-6.475885E-2,-3.488071E-2,-5.42084E-1,-1.3672888E0,2.4707694E-1,1.5497498E-1,7.397431E-2,4.4572407E-1,-6.0261685E-1,9.401257E-1,2.4835203E0,-2.2741904E-2,5.788135E-2,-6.2489845E-2,2.7896766E-2,-5.1038708E-3,5.71527E-2,-8.05487E-2,3.100138E-2,-1.6857162E-2,2.5371766E-2,-1.5747039E-2,4.1223805E-2,5.8535855E-2,-6.1471416E-3,3.9573055E-2,-8.128371E-2,-4.7781482E-2,3.2838475E-2,-1.9528283E-2,5.9761327E-2,-0E0,5.7910234E-2,4.1470982E-2,-2.8586796E-2,6.0698595E-2,-6.2486526E-2,1.7832948E-2,-5.458006E-2],"split_indices":[119,31,86,199,48,92,109,128,40,64,120,26,81,116,182,90,81,82,56,94,0,0,76,104,197,119,91,85,0,58,96,0,0,0,0,0,0,0,0,0,0,0,0,0,0,0,0,0,0,0,0,0,0,0,0,0,0,0,0],"split_type":[0,0,0,0,0,0,0,0,0,0,0,0,0,0,0,0,0,0,0,0,0,0,0,0,0,0,0,0,0,0,0,0,0,0,0,0,0,0,0,0,0,0,0,0,0,0,0,0,0,0,0,0,0,0,0,0,0,0,0],"sum_hessian":[1.3534367E4,3.7980637E3,9.736303E3,3.6915918E3,1.0647206E2,7.257983E3,2.47832E3,1.7237929E2,3.5192124E3,6.0702034E1,4.5770023E1,5.289864E2,6.7289966E3,1.2451599E3,1.2331602E3,1.1053595E2,6.1843334E1,3.4910217E3,2.8190628E1,2.7432485E0,5.7958786E1,1.4521365E0,4.4317886E1,5.0102206E2,2.79643E1,6.5702593E3,1.5873724E2,3.1848703E2,9.2667285E2,1.1315105E3,1.0164967E2,7.6159625E0,1.0291999E2,5.6089634E1,5.7537017E0,3.4699944E1,3.4563218E3,1.4634424E1,1.3556205E1,1.4325615E0,1.3106871E0,2.5804985E0,4.173739E1,4.5131485E2,4.970721E1,4.9842916E0,2.298001E1,6.3182695E3,2.5198985E2,5.414129E0,1.5332312E2,6.1043304E1,2.5744373E2,1.2696238E2,7.997105E2,1.1287964E3,2.714067E0,7.128855E0,9.452082E1],"tree_param":{"num_deleted":"0","num_feature":"200","num_nodes":"59","size_leaf_vector":"1"}},{"base_weights":[5.18068E-3,1.0222479E0,-3.891753E-1,1.0717802E0,-1.4474203E-1,-6.970363E-1,4.469976E-1,3.1131658E-1,1.1164304E0,-1.0719377E0,7.2867525E-1,8.830776E-1,-8.2886046E-1,-7.227052E-2,9.986861E-1,1.0032626E0,-1.0823244E0,-1.6372597E-1,1.1306648E0,3.0689849E-2,-1.2157024E0,1.0376699E0,3.099405E-1,1.0007544E0,-1.0053927E0,-8.752019E-1,1.0987494E0,7.0573974E-1,-4.0567684E-1,1.1858925E0,-8.9896405E-1,-1.7504303E-2,5.7306137E-2,-6.621176E-2,2.546837E-2,-6.309606E-2,3.907078E-2,5.739593E-2,2.1558098E-2,3.0306578E-2,-6.463358E-2,-0E0,5.4834247E-2,-2.7921582E-2,3.9888162E-2,5.719889E-2,-2.3648193E-2,-8.2100086E-2,4.3574065E-2,-4.619322E-2,2.9631231E-2,5.7771813E-2,-4.4020645E-2,-4.4440802E-2,4.7058206E-2,4.5322414E-2,-3.1058898E-2,5.979705E-2,-4.0478364E-2,2.612908E-2,-5.2758444E-2],"categories":[],"categories_nodes":[],"categories_segments":[],"categories_sizes":[],"default_left":[0,0,0,0,0,0,0,0,0,0,0,0,0,0,0,0,0,0,0,0,0,0,0,0,0,0,0,0,0,0,0,0,0,0,0,0,0,0,0,0,0,0,0,0,0,0,0,0,0,0,0,0,0,0,0,0,0,0,0,0,0],"id":24,"left_children":[1,3,5,7,9,11,13,15,17,19,21,23,25,27,29,31,33,35,37,-1,39,41,43,45,47,49,51,53,55,57,59,-1,-1,-1,-1,-1,-1,-1,-1,-1,-1,-1,-1,-1,-1,-1,-1,-1,-1,-1,-1,-1,-1,-1,-1,-1,-1,-1,-1,-1,-1],"loss_changes":[5.2925444E3,2.1436743E2,2.4481677E3,1.18011475E2,1.24243484E2,1.4491128E3,7.34056E2,1.9517967E2,6.219629E1,2.0183739E1,8.15625E0,1.2102649E2,5.748833E2,3.4240768E2,4.4352234E2,2.7760498E1,2.7929016E1,4.158584E1,3.7309082E1,0E0,1.2068535E1,3.6671143E0,1.7026373E1,1.0848181E2,4.176517E1,4.491084E2,1.9252792E1,1.5019594E2,2.625332E2,2.501123E1,2.6538803E1,0E0,0E0,0E0,0E0,0E0,0E0,0E0,0E0,0E0,0E0,0E0,0E0,0E0,0E0,0E0,0E0,0E0,0E0,0E0,0E0,0E0,0E0,0E0,0E0,0E0,0E0,0E0,0E0,0E0,0E0],"parents":[2147483647,0,0,1,1,2,2,3,3,4,4,5,5,6,6,7,7,8,8,9,9,10,10,11,11,12,12,13,13,14,14,15,15,16,16,17,17,18,18,20,20,21,21,22,22,23,23,24,24,25,25,26,26,27,27,28,28,29,29,30,30],"right_children":[2,4,6,8,10,12,14,16,18,20,22,24,26,28,30,32,34,36,38,-1,40,42,44,46,48,50,52,54,56,58,60,-1,-1,-1,-1,-1,-1,-1,-1,-1,-1,-1,-1,-1,-1,-1,-1,-1,-1,-1,-1,-1,-1,-1,-1,-1,-1,-1,-1,-1,-1],"split_conditions":[-1.0564786E0,9.4571245E-1,1.5551342E-1,-7.516885E-1,1.9020673E-2,-1.3611476E0,7.989219E-1,-1.2489932E0,